Source,Target,weight,label
-9189283624875180872,-7784712059813151204,3345,3345
-9189283624875180872,-7675450448203336984,2833,2833
-9189283624875180872,-4060513158963513109,1868,1868
-9189283624875180872,-3304550021239131016,1221,1221
-9189283624875180872,-3268067683072787167,1981,1981
-9189283624875180872,-2406154927270380003,2618,2618
-9189283624875180872,-273033171021384035,1928,1928
-9189283624875180872,2589265509983531627,1589,1589
-9189283624875180872,2695305337569098618,2812,2812
-9189283624875180872,3645692567939266464,1686,1686
-9189283624875180872,5074974895441262076,1484,1484
-9189283624875180872,5669528293118392224,1181,1181
-9189283624875180872,7341486337184709423,1359,1359
-9096232754884560930,-6174967750217613587,1526,1526
-9096232754884560930,-6026813875032476846,7707,7707
-9096232754884560930,-5264754114606649098,1912,1912
-9096232754884560930,-4060513158963513109,4872,4872
-9096232754884560930,-3869629224220610070,1075,1075
-9096232754884560930,-3810326145888079572,2273,2273
-9096232754884560930,-3522223837183396362,1760,1760
-9096232754884560930,160009025870183982,1527,1527
-9096232754884560930,1033778921950427255,1139,1139
-9096232754884560930,1108832248229541119,1669,1669
-9096232754884560930,2707166451744194534,3666,3666
-9096232754884560930,2811838510934669772,3072,3072
-9096232754884560930,3039183585666478258,6792,6792
-9096232754884560930,3645692567939266464,2605,2605
-9054730520840161619,-3304550021239131016,1110,1110
-9054730520840161619,-2406154927270380003,1310,1310
-9054730520840161619,-2159857214311285554,1064,1064
-9054730520840161619,2695305337569098618,1466,1466
-9054730520840161619,3039183585666478258,2808,2808
-8984704452568796311,-4050477985649184306,1200,1200
-8891087951811101969,160009025870183982,1085,1085
-8745505558082406655,-8476437303145384835,1073,1073
-8745505558082406655,-7784712059813151204,6129,6129
-8745505558082406655,-6174967750217613587,1529,1529
-8745505558082406655,-6026813875032476846,3082,3082
-8745505558082406655,-4060513158963513109,1919,1919
-8745505558082406655,-2179786877876424548,2888,2888
-8745505558082406655,2589265509983531627,2987,2987
-8745505558082406655,2811838510934669772,1097,1097
-8745505558082406655,3039183585666478258,4132,4132
-8745505558082406655,6059137422770648348,1340,1340
-8638814388602130013,3039183585666478258,1517,1517
-8491974549885993122,-4288244399130394731,3048,3048
-8491974549885993122,-1788134360438261396,1365,1365
-8476437303145384835,-2406154927270380003,1118,1118
-8445470335412454848,-7784712059813151204,1317,1317
-8445470335412454848,3039183585666478258,1326,1326
-7893553258893394166,3193173518988490583,1519,1519
-7784712059813151204,-7675450448203336984,1734,1734
-7784712059813151204,-6861850936062169047,1161,1161
-7784712059813151204,-6026813875032476846,6791,6791
-7784712059813151204,-3810326145888079572,3302,3302
-7784712059813151204,-3358320156885107738,1198,1198
-7784712059813151204,-3268067683072787167,3188,3188
-7784712059813151204,-1092374183810287215,5889,5889
-7784712059813151204,160009025870183982,2572,2572
-7784712059813151204,1033778921950427255,1691,1691
-7784712059813151204,2589265509983531627,7035,7035
-7784712059813151204,2695305337569098618,7241,7241
-7784712059813151204,2811838510934669772,2354,2354
-7784712059813151204,3039183585666478258,9421,9421
-7784712059813151204,5074974895441262076,1515,1515
-7784712059813151204,6059137422770648348,1438,1438
-7784712059813151204,7519427517373691798,2732,2732
-7702246673281502833,-5414993972319602247,1054,1054
-7702246673281502833,-273033171021384035,3452,3452
-7702246673281502833,2695305337569098618,4621,4621
-7702246673281502833,2768059539183056150,3556,3556
-7702246673281502833,2811838510934669772,1495,1495
-6871805885232958587,-4050477985649184306,1606,1606
-6835537133953598467,3039183585666478258,1205,1205
-6806691435797463535,-6026813875032476846,5080,5080
-6806691435797463535,-4666453782075787270,1370,1370
-6806691435797463535,-2406154927270380003,2538,2538
-6806691435797463535,-2159857214311285554,2975,2975
-6806691435797463535,-1423000256242238038,1053,1053
-6806691435797463535,2589265509983531627,1174,1174
-6806691435797463535,2695305337569098618,2589,2589
-6806691435797463535,2707166451744194534,1007,1007
-6806691435797463535,2811838510934669772,1450,1450
-6659696680396705782,-4050477985649184306,2048,2048
-6659696680396705782,8245816881551523383,1031,1031
-6174967750217613587,-1092374183810287215,1381,1381
-6026813875032476846,-4666453782075787270,2169,2169
-6026813875032476846,-3522223837183396362,3060,3060
-6026813875032476846,-3304550021239131016,2872,2872
-6026813875032476846,-3268067683072787167,1002,1002
-6026813875032476846,-2406154927270380003,3533,3533
-6026813875032476846,-2179786877876424548,1767,1767
-6026813875032476846,160009025870183982,1146,1146
-6026813875032476846,1960646417337105237,1942,1942
-6026813875032476846,2811838510934669772,1867,1867
-6026813875032476846,3645692567939266464,1340,1340
-5904698658142210447,-3268067683072787167,1132,1132
-5414993972319602247,-4060513158963513109,1827,1827
-5414993972319602247,2695305337569098618,1930,1930
-5414993972319602247,7341486337184709423,1681,1681
-5264754114606649098,1960646417337105237,1074,1074
-4999257352771650151,-2406154927270380003,1805,1805
-4999257352771650151,3645692567939266464,1139,1139
-4876003296321717233,2695305337569098618,2061,2061
-4876003296321717233,7341486337184709423,1608,1608
-4876003296321717233,7484248958687458596,1356,1356
-4666453782075787270,-3304550021239131016,2318,2318
-4666453782075787270,-2406154927270380003,2867,2867
-4666453782075787270,-2159857214311285554,1498,1498
-4666453782075787270,-1092374183810287215,1573,1573
-4666453782075787270,-273033171021384035,2156,2156
-4666453782075787270,3645692567939266464,1219,1219
-4659034257681990730,-4288244399130394731,5311,5311
-4129215337742647371,-2179786877876424548,1008,1008
-4060513158963513109,-4050477985649184306,1175,1175
-4060513158963513109,-3869629224220610070,2530,2530
-4060513158963513109,-1043076841826534975,1246,1246
-4060513158963513109,1960646417337105237,1025,1025
-4060513158963513109,2087922859966410869,1490,1490
-4060513158963513109,2589265509983531627,1256,1256
-4060513158963513109,3645692567939266464,6235,6235
-4060513158963513109,4064891571011074380,2625,2625
-4060513158963513109,4462447588911890185,1253,1253
-4060513158963513109,4775248038139805003,1872,1872
-4060513158963513109,8584721346566371541,1636,1636
-4050477985649184306,-3268067683072787167,1692,1692
-4050477985649184306,-273033171021384035,1140,1140
-4050477985649184306,8584721346566371541,1012,1012
-3869629224220610070,-273033171021384035,2197,2197
-3869629224220610070,7341486337184709423,2349,2349
-3810326145888079572,-3304550021239131016,1282,1282
-3810326145888079572,603774118492778883,1081,1081
-3522223837183396362,-2406154927270380003,1171,1171
-3304550021239131016,-2179786877876424548,2335,2335
-3304550021239131016,-2159857214311285554,1993,1993
-3304550021239131016,1108832248229541119,1949,1949
-3304550021239131016,1960646417337105237,1343,1343
-3304550021239131016,2087922859966410869,1543,1543
-3304550021239131016,4775248038139805003,1342,1342
-3304550021239131016,5074974895441262076,2218,2218
-3304550021239131016,7484248958687458596,4006,4006
-3268067683072787167,-2159857214311285554,1460,1460
-3268067683072787167,-2158435871750802565,1023,1023
-3268067683072787167,2589265509983531627,1110,1110
-2406154927270380003,-1092374183810287215,1657,1657
-2406154927270380003,-1043076841826534975,1240,1240
-2406154927270380003,603774118492778883,1061,1061
-2406154927270380003,1108832248229541119,2791,2791
-2406154927270380003,2695305337569098618,11203,11203
-2406154927270380003,2768059539183056150,4154,4154
-2406154927270380003,4462447588911890185,1790,1790
-2406154927270380003,4775248038139805003,2612,2612
-2406154927270380003,8584721346566371541,2400,2400
-2179786877876424548,457644081920749895,1213,1213
-2179786877876424548,2589265509983531627,2756,2756
-2179786877876424548,2695305337569098618,4238,4238
-2179786877876424548,3645692567939266464,2152,2152
-2179786877876424548,5647053732965528546,1704,1704
-2179786877876424548,7484248958687458596,1082,1082
-2159857214311285554,-2158435871750802565,2498,2498
-2159857214311285554,603774118492778883,1040,1040
-2159857214311285554,1033778921950427255,1014,1014
-2159857214311285554,1960646417337105237,2070,2070
-1043076841826534975,2695305337569098618,1019,1019
-273033171021384035,1108832248229541119,1983,1983
-273033171021384035,2087922859966410869,1348,1348
-273033171021384035,4462447588911890185,1237,1237
-273033171021384035,4775248038139805003,1787,1787
-273033171021384035,7341486337184709423,3712,3712
160009025870183982,2589265509983531627,2211,2211
871557107850427658,2768059539183056150,1449,1449
871557107850427658,3645692567939266464,1383,1383
871557107850427658,4775248038139805003,1387,1387
1960646417337105237,2695305337569098618,1866,1866
2087922859966410869,3645692567939266464,1324,1324
2589265509983531627,2695305337569098618,3309,3309
2695305337569098618,2811838510934669772,4749,4749
2695305337569098618,3645692567939266464,6620,6620
2695305337569098618,8584721346566371541,2308,2308
2768059539183056150,4462447588911890185,1401,1401
2768059539183056150,7341486337184709423,3003,3003
2768059539183056150,7484248958687458596,2543,2543
2811838510934669772,3039183585666478258,1604,1604
3645692567939266464,4064891571011074380,1094,1094
3645692567939266464,5074974895441262076,1422,1422
4462447588911890185,4775248038139805003,2212,2212
4775248038139805003,7484248958687458596,1762,1762
5074974895441262076,7341486337184709423,1758,1758
5558406874053753951,5669528293118392224,2292,2292
7484248958687458596,8584721346566371541,1448,1448
-9189283624875180872,-9096232754884560930,2515,2515
-9189283624875180872,-6026813875032476846,1030,1030
-9189283624875180872,-2179786877876424548,1191,1191
-9189283624875180872,1108832248229541119,1277,1277
-9189283624875180872,7057794358978688335,2134,2134
-9096232754884560930,-9054730520840161619,2389,2389
-9096232754884560930,-8745505558082406655,9384,9384
-9096232754884560930,-8476437303145384835,1596,1596
-9096232754884560930,-5835361465413913482,1196,1196
-9096232754884560930,-3304550021239131016,4239,4239
-9096232754884560930,-2406154927270380003,5822,5822
-9096232754884560930,-2179786877876424548,6186,6186
-9096232754884560930,-2159857214311285554,10703,10703
-9096232754884560930,-1092374183810287215,4607,4607
-9096232754884560930,-464204487869910793,1040,1040
-9096232754884560930,-273033171021384035,4648,4648
-9096232754884560930,411522172308304650,1247,1247
-9096232754884560930,457644081920749895,1036,1036
-9096232754884560930,865030606091400331,1168,1168
-9096232754884560930,2695305337569098618,7179,7179
-9096232754884560930,5074974895441262076,1175,1175
-9096232754884560930,6059137422770648348,1168,1168
-9096232754884560930,7057794358978688335,1027,1027
-9054730520840161619,-8745505558082406655,1038,1038
-9054730520840161619,-7784712059813151204,3337,3337
-9054730520840161619,-6026813875032476846,1607,1607
-9054730520840161619,1960646417337105237,1357,1357
-8891087951811101969,-7426124097735608676,1091,1091
-8745505558082406655,-6806691435797463535,2009,2009
-8745505558082406655,-5846950087260686514,1062,1062
-8745505558082406655,-4666453782075787270,1791,1791
-8745505558082406655,-2406154927270380003,2362,2362
-8745505558082406655,-2159857214311285554,5411,5411
-8745505558082406655,-1092374183810287215,3103,3103
-8745505558082406655,411522172308304650,1210,1210
-8745505558082406655,2707166451744194534,2235,2235
-8641629872156953748,-5279551511944939224,1359,1359
-8641629872156953748,5269705119417905242,3821,3821
-8491974549885993122,-4659034257681990730,3435,3435
-7784712059813151204,-5904698658142210447,1572,1572
-7784712059813151204,-4387858203142964056,2130,2130
-7784712059813151204,-3869629224220610070,1232,1232
-7784712059813151204,-3522223837183396362,1345,1345
-7784712059813151204,-3304550021239131016,4039,4039
-7784712059813151204,-2406154927270380003,5685,5685
-7784712059813151204,-1423000256242238038,1571,1571
-7784712059813151204,603774118492778883,3234,3234
-7784712059813151204,1108832248229541119,1879,1879
-7784712059813151204,1960646417337105237,3572,3572
-7784712059813151204,7341486337184709423,2086,2086
-7702246673281502833,-3304550021239131016,3194,3194
-7702246673281502833,7484248958687458596,3221,3221
-7702246673281502833,8584721346566371541,1345,1345
-7675450448203336984,-2158435871750802565,4905,4905
-7675450448203336984,2589265509983531627,1117,1117
-7675450448203336984,7057794358978688335,1235,1235
-6806691435797463535,-3522223837183396362,1853,1853
-6806691435797463535,-273033171021384035,1710,1710
-6806691435797463535,1960646417337105237,2130,2130
-6026813875032476846,-5904698658142210447,1061,1061
-6026813875032476846,-4060513158963513109,2724,2724
-6026813875032476846,-1092374183810287215,2482,2482
-6026813875032476846,603774118492778883,1384,1384
-5904698658142210447,-2159857214311285554,1251,1251
-5835361465413913482,-4999257352771650151,1356,1356
-5440734165330348305,-2179786877876424548,1016,1016
-5414993972319602247,-3304550021239131016,1419,1419
-5264754114606649098,-2159857214311285554,1404,1404
-4999257352771650151,-3304550021239131016,1054,1054
-4999257352771650151,-273033171021384035,1261,1261
-4999257352771650151,2695305337569098618,1973,1973
-4876003296321717233,-4060513158963513109,1479,1479
-4876003296321717233,-2406154927270380003,1925,1925
-4876003296321717233,-273033171021384035,1468,1468
-4666453782075787270,-2179786877876424548,1458,1458
-4666453782075787270,2695305337569098618,2635,2635
-4666453782075787270,7341486337184709423,1069,1069
-4288244399130394731,-1788134360438261396,1038,1038
-4060513158963513109,-3304550021239131016,7404,7404
-4060513158963513109,-2479076574622892161,1039,1039
-4060513158963513109,-273033171021384035,11992,11992
-4060513158963513109,871557107850427658,1272,1272
-4060513158963513109,1108832248229541119,2210,2210
-4060513158963513109,2768059539183056150,2924,2924
-4060513158963513109,5074974895441262076,1959,1959
-4060513158963513109,7341486337184709423,5164,5164
-4060513158963513109,7484248958687458596,3050,3050
-4050477985649184306,-3296130994422989526,1147,1147
-4050477985649184306,2695305337569098618,1352,1352
-4050477985649184306,5269705119417905242,2190,2190
-4050477985649184306,8245816881551523383,4875,4875
-3869629224220610070,-3304550021239131016,3601,3601
-3869629224220610070,-2406154927270380003,3058,3058
-3869629224220610070,2695305337569098618,2774,2774
-3869629224220610070,2811838510934669772,1377,1377
-3810326145888079572,-1092374183810287215,1708,1708
-3810326145888079572,1960646417337105237,1349,1349
-3810326145888079572,2695305337569098618,1415,1415
-3810326145888079572,3039183585666478258,3390,3390
-3304550021239131016,-3268067683072787167,1320,1320
-3304550021239131016,-1092374183810287215,1760,1760
-3304550021239131016,603774118492778883,1187,1187
-3304550021239131016,2811838510934669772,4795,4795
-3304550021239131016,7341486337184709423,5313,5313
-3268067683072787167,-2179786877876424548,1215,1215
-3268067683072787167,-1521781524640025379,1269,1269
-3268067683072787167,-273033171021384035,1873,1873
-3268067683072787167,2695305337569098618,4180,4180
-3268067683072787167,3645692567939266464,1759,1759
-3268067683072787167,8584721346566371541,1769,1769
-2479076574622892161,-2406154927270380003,1540,1540
-2479076574622892161,2695305337569098618,1211,1211
-2406154927270380003,-2179786877876424548,4167,4167
-2406154927270380003,-2159857214311285554,3264,3264
-2406154927270380003,-1423000256242238038,1084,1084
-2406154927270380003,871557107850427658,1904,1904
-2406154927270380003,3039183585666478258,2791,2791
-2406154927270380003,4064891571011074380,1952,1952
-2406154927270380003,5074974895441262076,2680,2680
-2406154927270380003,7341486337184709423,8028,8028
-2179786877876424548,2707166451744194534,1564,1564
-2179786877876424548,2811838510934669772,1970,1970
-2179786877876424548,7519427517373691798,1093,1093
-2159857214311285554,-1092374183810287215,1970,1970
-2159857214311285554,2589265509983531627,6259,6259
-2159857214311285554,2695305337569098618,4763,4763
-2159857214311285554,2811838510934669772,1390,1390
-2159857214311285554,3039183585666478258,3069,3069
-2159857214311285554,7519427517373691798,2416,2416
-2158435871750802565,2589265509983531627,1508,1508
-2158435871750802565,2695305337569098618,1047,1047
-2158435871750802565,2707166451744194534,1139,1139
-2158435871750802565,7057794358978688335,1619,1619
-1423000256242238038,3039183585666478258,1287,1287
-1092374183810287215,-273033171021384035,1221,1221
-1092374183810287215,3039183585666478258,5701,5701
-1092374183810287215,7519427517373691798,1158,1158
-464204487869910793,3039183585666478258,1013,1013
-273033171021384035,2695305337569098618,8306,8306
-273033171021384035,2768059539183056150,2620,2620
-273033171021384035,2811838510934669772,4556,4556
-273033171021384035,3039183585666478258,1861,1861
-273033171021384035,4064891571011074380,1684,1684
-273033171021384035,8584721346566371541,1303,1303
160009025870183982,2707166451744194534,1096,1096
411522172308304650,2589265509983531627,1207,1207
603774118492778883,1960646417337105237,1118,1118
603774118492778883,2695305337569098618,1208,1208
871557107850427658,7341486337184709423,1393,1393
1108832248229541119,2695305337569098618,2335,2335
1108832248229541119,2811838510934669772,1980,1980
1108832248229541119,7341486337184709423,1295,1295
2087922859966410869,2695305337569098618,1705,1705
2589265509983531627,2707166451744194534,4595,4595
2589265509983531627,7519427517373691798,1650,1650
2695305337569098618,2768059539183056150,3536,3536
2695305337569098618,3039183585666478258,3449,3449
2695305337569098618,4064891571011074380,1601,1601
2695305337569098618,7519427517373691798,1695,1695
2768059539183056150,3645692567939266464,3201,3201
2811838510934669772,4064891571011074380,1280,1280
2811838510934669772,5074974895441262076,1940,1940
2811838510934669772,7341486337184709423,2814,2814
3039183585666478258,7519427517373691798,1659,1659
3039183585666478258,7847537258258185880,1326,1326
3645692567939266464,3946370886449903125,1535,1535
3645692567939266464,7341486337184709423,5233,5233
3645692567939266464,7484248958687458596,3965,3965
4064891571011074380,7341486337184709423,1192,1192
4462447588911890185,7484248958687458596,1196,1196
4775248038139805003,7341486337184709423,1960,1960
5074974895441262076,7484248958687458596,1253,1253
-9189283624875180872,-8745505558082406655,1572,1572
-9189283624875180872,-7702246673281502833,1037,1037
-9189283624875180872,-2159857214311285554,2200,2200
-9189283624875180872,-2158435871750802565,4119,4119
-9189283624875180872,-1521781524640025379,1020,1020
-9189283624875180872,5558406874053753951,1130,1130
-9096232754884560930,-8638814388602130013,1005,1005
-9096232754884560930,-7784712059813151204,11346,11346
-9096232754884560930,-7675450448203336984,1649,1649
-9096232754884560930,-7426124097735608676,1097,1097
-9096232754884560930,-6806691435797463535,6584,6584
-9096232754884560930,-5904698658142210447,1400,1400
-9096232754884560930,-4999257352771650151,1948,1948
-9096232754884560930,-4666453782075787270,3416,3416
-9096232754884560930,-4129215337742647371,1675,1675
-9096232754884560930,-3268067683072787167,1754,1754
-9096232754884560930,-2158435871750802565,2247,2247
-9096232754884560930,-1423000256242238038,1057,1057
-9096232754884560930,603774118492778883,2540,2540
-9096232754884560930,1960646417337105237,3388,3388
-9096232754884560930,2589265509983531627,5052,5052
-9096232754884560930,5647053732965528546,1560,1560
-9096232754884560930,7341486337184709423,1343,1343
-9096232754884560930,7519427517373691798,4249,4249
-9096232754884560930,7847537258258185880,1294,1294
-9054730520840161619,-6806691435797463535,1915,1915
-9054730520840161619,-3810326145888079572,1374,1374
-9054730520840161619,-1092374183810287215,1603,1603
-9045514412949687915,-4050477985649184306,1017,1017
-8745505558082406655,-4999257352771650151,1467,1467
-8745505558082406655,-4129215337742647371,1855,1855
-8745505558082406655,-3810326145888079572,1070,1070
-8745505558082406655,-3304550021239131016,1793,1793
-8745505558082406655,-2158435871750802565,1443,1443
-8745505558082406655,-273033171021384035,1851,1851
-8745505558082406655,160009025870183982,1047,1047
-8745505558082406655,603774118492778883,1672,1672
-8745505558082406655,1960646417337105237,1931,1931
-8745505558082406655,2695305337569098618,3560,3560
-8745505558082406655,3645692567939266464,1387,1387
-8745505558082406655,7519427517373691798,4275,4275
-8638814388602130013,-7784712059813151204,1406,1406
-8481753544240448093,160009025870183982,1045,1045
-8476437303145384835,-7784712059813151204,1379,1379
-8476437303145384835,-2159857214311285554,1056,1056
-8476437303145384835,2695305337569098618,1284,1284
-7784712059813151204,-7702246673281502833,1330,1330
-7784712059813151204,-7426124097735608676,2233,2233
-7784712059813151204,-6835537133953598467,1154,1154
-7784712059813151204,-6806691435797463535,5934,5934
-7784712059813151204,-6174967750217613587,1910,1910
-7784712059813151204,-5835361465413913482,1284,1284
-7784712059813151204,-4999257352771650151,1910,1910
-7784712059813151204,-4666453782075787270,2943,2943
-7784712059813151204,-4060513158963513109,3904,3904
-7784712059813151204,-2179786877876424548,2702,2702
-7784712059813151204,-2159857214311285554,7939,7939
-7784712059813151204,-2158435871750802565,2367,2367
-7784712059813151204,-1521781524640025379,1375,1375
-7784712059813151204,-464204487869910793,1477,1477
-7784712059813151204,-273033171021384035,3757,3757
-7784712059813151204,2707166451744194534,2811,2811
-7784712059813151204,2768059539183056150,1241,1241
-7784712059813151204,3645692567939266464,3112,3112
-7784712059813151204,7057794358978688335,1558,1558
-7784712059813151204,7484248958687458596,1214,1214
-7784712059813151204,7744895437826374207,1372,1372
-7784712059813151204,7847537258258185880,1891,1891
-7702246673281502833,-4876003296321717233,1246,1246
-7702246673281502833,-4060513158963513109,3879,3879
-7702246673281502833,-3869629224220610070,1556,1556
-7702246673281502833,-2406154927270380003,5123,5123
-7702246673281502833,-2179786877876424548,1032,1032
-7702246673281502833,871557107850427658,1435,1435
-7702246673281502833,2087922859966410869,1153,1153
-7702246673281502833,3645692567939266464,4182,4182
-7702246673281502833,4462447588911890185,1440,1440
-7702246673281502833,4775248038139805003,2227,2227
-7702246673281502833,7341486337184709423,3797,3797
-7675450448203336984,-2159857214311285554,1953,1953
-7426124097735608676,-2159857214311285554,1293,1293
-7426124097735608676,160009025870183982,2966,2966
-7426124097735608676,1033778921950427255,1638,1638
-7426124097735608676,2589265509983531627,1997,1997
-6806691435797463535,-4060513158963513109,1753,1753
-6806691435797463535,-3810326145888079572,1898,1898
-6806691435797463535,-3304550021239131016,2180,2180
-6806691435797463535,-1092374183810287215,2454,2454
-6806691435797463535,603774118492778883,1418,1418
-6806691435797463535,865030606091400331,1093,1093
-6806691435797463535,3039183585666478258,3898,3898
-6174967750217613587,3039183585666478258,1726,1726
-6026813875032476846,-3810326145888079572,1546,1546
-6026813875032476846,-2159857214311285554,4200,4200
-6026813875032476846,-273033171021384035,2645,2645
-6026813875032476846,1108832248229541119,1037,1037
-6026813875032476846,2589265509983531627,3109,3109
-6026813875032476846,2695305337569098618,3509,3509
-6026813875032476846,2707166451744194534,1558,1558
-6026813875032476846,3039183585666478258,3858,3858
-6026813875032476846,7519427517373691798,1361,1361
-5904698658142210447,2695305337569098618,1363,1363
-5414993972319602247,-2406154927270380003,2193,2193
-5414993972319602247,-273033171021384035,1558,1558
-5414993972319602247,3645692567939266464,1485,1485
-5414993972319602247,7484248958687458596,1415,1415
-4999257352771650151,-4060513158963513109,1393,1393
-4999257352771650151,-2159857214311285554,1641,1641
-4876003296321717233,-3304550021239131016,1212,1212
-4876003296321717233,-3268067683072787167,1549,1549
-4876003296321717233,3645692567939266464,1313,1313
-4666453782075787270,-4060513158963513109,2393,2393
-4666453782075787270,2811838510934669772,1509,1509
-4666453782075787270,3039183585666478258,2513,2513
-4659034257681990730,-1788134360438261396,1530,1530
-4387858203142964056,-3268067683072787167,1580,1580
-4060513158963513109,-3268067683072787167,1974,1974
-4060513158963513109,-2406154927270380003,11909,11909
-4060513158963513109,-2179786877876424548,3870,3870
-4060513158963513109,-2159857214311285554,2648,2648
-4060513158963513109,-1092374183810287215,1301,1301
-4060513158963513109,2695305337569098618,8959,8959
-4060513158963513109,2811838510934669772,5098,5098
-4060513158963513109,3039183585666478258,1922,1922
-3869629224220610070,2768059539183056150,1091,1091
-3869629224220610070,3645692567939266464,2064,2064
-3869629224220610070,7484248958687458596,1823,1823
-3810326145888079572,-2406154927270380003,1423,1423
-3304550021239131016,-2479076574622892161,1043,1043
-3304550021239131016,-2406154927270380003,9164,9164
-3304550021239131016,-273033171021384035,6497,6497
-3304550021239131016,2695305337569098618,7253,7253
-3304550021239131016,2768059539183056150,2169,2169
-3304550021239131016,3039183585666478258,2610,2610
-3304550021239131016,3645692567939266464,4966,4966
-3304550021239131016,4064891571011074380,1577,1577
-3304550021239131016,8584721346566371541,1310,1310
-3268067683072787167,-2406154927270380003,2141,2141
-3268067683072787167,7341486337184709423,1740,1740
-3268067683072787167,7484248958687458596,1126,1126
-2406154927270380003,-273033171021384035,11040,11040
-2406154927270380003,1960646417337105237,1383,1383
-2406154927270380003,2087922859966410869,1943,1943
-2406154927270380003,2589265509983531627,1901,1901
-2406154927270380003,2811838510934669772,6278,6278
-2406154927270380003,3645692567939266464,6229,6229
-2406154927270380003,3946370886449903125,1123,1123
-2406154927270380003,7484248958687458596,5811,5811
-2406154927270380003,7519427517373691798,1136,1136
-2179786877876424548,-2159857214311285554,4111,4111
-2179786877876424548,-273033171021384035,3576,3576
-2179786877876424548,7341486337184709423,1533,1533
-2159857214311285554,-273033171021384035,2621,2621
-2159857214311285554,160009025870183982,1641,1641
-2159857214311285554,411522172308304650,1237,1237
-2159857214311285554,2707166451744194534,4862,4862
-2159857214311285554,3645692567939266464,1658,1658
-1092374183810287215,603774118492778883,2594,2594
-1092374183810287215,1960646417337105237,1881,1881
-1092374183810287215,2695305337569098618,2132,2132
-560123512857411715,2589265509983531627,1245,1245
-560123512857411715,2707166451744194534,1185,1185
-273033171021384035,871557107850427658,1179,1179
-273033171021384035,2589265509983531627,1328,1328
-273033171021384035,3645692567939266464,5600,5600
-273033171021384035,5074974895441262076,1747,1747
-273033171021384035,7484248958687458596,2885,2885
160009025870183982,1033778921950427255,1797,1797
603774118492778883,3039183585666478258,2569,2569
871557107850427658,2695305337569098618,1593,1593
871557107850427658,7484248958687458596,1313,1313
1033778921950427255,2589265509983531627,1139,1139
1108832248229541119,3645692567939266464,1082,1082
1108832248229541119,5074974895441262076,2844,2844
1960646417337105237,3039183585666478258,2876,2876
2087922859966410869,7341486337184709423,1520,1520
2087922859966410869,7484248958687458596,1190,1190
2589265509983531627,3645692567939266464,1347,1347
2589265509983531627,6405593197437662758,1007,1007
2695305337569098618,2707166451744194534,1426,1426
2695305337569098618,4462447588911890185,1622,1622
2695305337569098618,4775248038139805003,2394,2394
2695305337569098618,5074974895441262076,2361,2361
2695305337569098618,7341486337184709423,6550,6550
2695305337569098618,7484248958687458596,5019,5019
2768059539183056150,4775248038139805003,2050,2050
2811838510934669772,3645692567939266464,2522,2522
2811838510934669772,7484248958687458596,1995,1995
3039183585666478258,3645692567939266464,1035,1035
3645692567939266464,4462447588911890185,1406,1406
3645692567939266464,4775248038139805003,1988,1988
3645692567939266464,8584721346566371541,1804,1804
4462447588911890185,7341486337184709423,1371,1371
7341486337184709423,7484248958687458596,6878,6878
7341486337184709423,8584721346566371541,1663,1663
