Source,Target,weight,label
-9189283624875180872,-7784712059813151204,3345,3345
-9189283624875180872,-4060513158963513109,1868,1868
-9189283624875180872,-3304550021239131016,1221,1221
-9189283624875180872,-2406154927270380003,2618,2618
-9189283624875180872,-273033171021384035,1928,1928
-9189283624875180872,2695305337569098618,2812,2812
-9189283624875180872,3645692567939266464,1686,1686
-9096232754884560930,-6174967750217613587,1526,1526
-9096232754884560930,-6026813875032476846,7707,7707
-9096232754884560930,-5264754114606649098,1912,1912
-9096232754884560930,-4060513158963513109,4872,4872
-9096232754884560930,-3869629224220610070,1075,1075
-9096232754884560930,-3810326145888079572,2273,2273
-9096232754884560930,-3522223837183396362,1760,1760
-9096232754884560930,160009025870183982,1527,1527
-9096232754884560930,1033778921950427255,1139,1139
-9096232754884560930,1108832248229541119,1669,1669
-9096232754884560930,2707166451744194534,3666,3666
-9096232754884560930,2811838510934669772,3072,3072
-9096232754884560930,3039183585666478258,6792,6792
-9096232754884560930,3645692567939266464,2605,2605
-9054730520840161619,-3304550021239131016,1110,1110
-9054730520840161619,-2406154927270380003,1310,1310
-9054730520840161619,-2159857214311285554,1064,1064
-9054730520840161619,2695305337569098618,1466,1466
-8745505558082406655,-8476437303145384835,1073,1073
-8745505558082406655,-7784712059813151204,6129,6129
-8745505558082406655,-6174967750217613587,1529,1529
-8745505558082406655,-6026813875032476846,3082,3082
-8745505558082406655,-4060513158963513109,1919,1919
-8745505558082406655,-2179786877876424548,2888,2888
-8745505558082406655,2589265509983531627,2987,2987
-8745505558082406655,2811838510934669772,1097,1097
-8745505558082406655,3039183585666478258,4132,4132
-8745505558082406655,6059137422770648348,1340,1340
-8476437303145384835,-2406154927270380003,1118,1118
-8445470335412454848,-7784712059813151204,1317,1317
-7784712059813151204,-7675450448203336984,1734,1734
-7784712059813151204,-6861850936062169047,1161,1161
-7784712059813151204,-6026813875032476846,6791,6791
-7784712059813151204,-3810326145888079572,3302,3302
-7784712059813151204,-3358320156885107738,1198,1198
-7784712059813151204,-3268067683072787167,3188,3188
-7784712059813151204,-1092374183810287215,5889,5889
-7784712059813151204,160009025870183982,2572,2572
-7784712059813151204,1033778921950427255,1691,1691
-7784712059813151204,2589265509983531627,7035,7035
-7784712059813151204,2695305337569098618,7241,7241
-7784712059813151204,2811838510934669772,2354,2354
-7784712059813151204,3039183585666478258,9421,9421
-7784712059813151204,5074974895441262076,1515,1515
-7784712059813151204,6059137422770648348,1438,1438
-7784712059813151204,7519427517373691798,2732,2732
-7702246673281502833,-273033171021384035,3452,3452
-7702246673281502833,2695305337569098618,4621,4621
-6806691435797463535,-2406154927270380003,2538,2538
-6806691435797463535,-2159857214311285554,2975,2975
-6806691435797463535,2695305337569098618,2589,2589
-6026813875032476846,-3304550021239131016,2872,2872
-6026813875032476846,-2406154927270380003,3533,3533
-6026813875032476846,3645692567939266464,1340,1340
-5414993972319602247,-4060513158963513109,1827,1827
-5414993972319602247,2695305337569098618,1930,1930
-4999257352771650151,-2406154927270380003,1805,1805
-4999257352771650151,3645692567939266464,1139,1139
-4876003296321717233,2695305337569098618,2061,2061
-4666453782075787270,-3304550021239131016,2318,2318
-4666453782075787270,-2406154927270380003,2867,2867
-4666453782075787270,-2159857214311285554,1498,1498
-4666453782075787270,-273033171021384035,2156,2156
-4666453782075787270,3645692567939266464,1219,1219
-4060513158963513109,-4050477985649184306,1175,1175
-4060513158963513109,-3869629224220610070,2530,2530
-4060513158963513109,-1043076841826534975,1246,1246
-4060513158963513109,1960646417337105237,1025,1025
-4060513158963513109,2087922859966410869,1490,1490
-4060513158963513109,2589265509983531627,1256,1256
-4060513158963513109,3645692567939266464,6235,6235
-4060513158963513109,4064891571011074380,2625,2625
-4060513158963513109,4462447588911890185,1253,1253
-4060513158963513109,4775248038139805003,1872,1872
-4060513158963513109,8584721346566371541,1636,1636
-4050477985649184306,-273033171021384035,1140,1140
-3869629224220610070,-273033171021384035,2197,2197
-3810326145888079572,-3304550021239131016,1282,1282
-3522223837183396362,-2406154927270380003,1171,1171
-3304550021239131016,-2179786877876424548,2335,2335
-3304550021239131016,-2159857214311285554,1993,1993
-3304550021239131016,1108832248229541119,1949,1949
-3304550021239131016,1960646417337105237,1343,1343
-3304550021239131016,2087922859966410869,1543,1543
-3304550021239131016,4775248038139805003,1342,1342
-3304550021239131016,5074974895441262076,2218,2218
-3304550021239131016,7484248958687458596,4006,4006
-3268067683072787167,-2159857214311285554,1460,1460
-2406154927270380003,-1092374183810287215,1657,1657
-2406154927270380003,-1043076841826534975,1240,1240
-2406154927270380003,603774118492778883,1061,1061
-2406154927270380003,1108832248229541119,2791,2791
-2406154927270380003,2695305337569098618,11203,11203
-2406154927270380003,2768059539183056150,4154,4154
-2406154927270380003,4462447588911890185,1790,1790
-2406154927270380003,4775248038139805003,2612,2612
-2406154927270380003,8584721346566371541,2400,2400
-2179786877876424548,2695305337569098618,4238,4238
-2179786877876424548,3645692567939266464,2152,2152
-2159857214311285554,-2158435871750802565,2498,2498
-2159857214311285554,603774118492778883,1040,1040
-2159857214311285554,1033778921950427255,1014,1014
-2159857214311285554,1960646417337105237,2070,2070
-1043076841826534975,2695305337569098618,1019,1019
-273033171021384035,1108832248229541119,1983,1983
-273033171021384035,2087922859966410869,1348,1348
-273033171021384035,4462447588911890185,1237,1237
-273033171021384035,4775248038139805003,1787,1787
-273033171021384035,7341486337184709423,3712,3712
871557107850427658,3645692567939266464,1383,1383
1960646417337105237,2695305337569098618,1866,1866
2087922859966410869,3645692567939266464,1324,1324
2589265509983531627,2695305337569098618,3309,3309
2695305337569098618,2811838510934669772,4749,4749
2695305337569098618,3645692567939266464,6620,6620
2695305337569098618,8584721346566371541,2308,2308
3645692567939266464,4064891571011074380,1094,1094
3645692567939266464,5074974895441262076,1422,1422
-9189283624875180872,-9096232754884560930,2515,2515
-9096232754884560930,-9054730520840161619,2389,2389
-9096232754884560930,-8745505558082406655,9384,9384
-9096232754884560930,-8476437303145384835,1596,1596
-9096232754884560930,-5835361465413913482,1196,1196
-9096232754884560930,-3304550021239131016,4239,4239
-9096232754884560930,-2406154927270380003,5822,5822
-9096232754884560930,-2179786877876424548,6186,6186
-9096232754884560930,-2159857214311285554,10703,10703
-9096232754884560930,-1092374183810287215,4607,4607
-9096232754884560930,-464204487869910793,1040,1040
-9096232754884560930,-273033171021384035,4648,4648
-9096232754884560930,411522172308304650,1247,1247
-9096232754884560930,457644081920749895,1036,1036
-9096232754884560930,865030606091400331,1168,1168
-9096232754884560930,2695305337569098618,7179,7179
-9096232754884560930,5074974895441262076,1175,1175
-9096232754884560930,6059137422770648348,1168,1168
-9096232754884560930,7057794358978688335,1027,1027
-9054730520840161619,-8745505558082406655,1038,1038
-9054730520840161619,-7784712059813151204,3337,3337
-8745505558082406655,-6806691435797463535,2009,2009
-8745505558082406655,-5846950087260686514,1062,1062
-8745505558082406655,-4666453782075787270,1791,1791
-8745505558082406655,-2406154927270380003,2362,2362
-8745505558082406655,-2159857214311285554,5411,5411
-8745505558082406655,-1092374183810287215,3103,3103
-8745505558082406655,411522172308304650,1210,1210
-8745505558082406655,2707166451744194534,2235,2235
-7784712059813151204,-5904698658142210447,1572,1572
-7784712059813151204,-4387858203142964056,2130,2130
-7784712059813151204,-3869629224220610070,1232,1232
-7784712059813151204,-3522223837183396362,1345,1345
-7784712059813151204,-3304550021239131016,4039,4039
-7784712059813151204,-2406154927270380003,5685,5685
-7784712059813151204,-1423000256242238038,1571,1571
-7784712059813151204,603774118492778883,3234,3234
-7784712059813151204,1108832248229541119,1879,1879
-7784712059813151204,1960646417337105237,3572,3572
-7784712059813151204,7341486337184709423,2086,2086
-7702246673281502833,-3304550021239131016,3194,3194
-6806691435797463535,-273033171021384035,1710,1710
-6026813875032476846,-4060513158963513109,2724,2724
-5904698658142210447,-2159857214311285554,1251,1251
-5414993972319602247,-3304550021239131016,1419,1419
-5264754114606649098,-2159857214311285554,1404,1404
-4999257352771650151,-3304550021239131016,1054,1054
-4999257352771650151,-273033171021384035,1261,1261
-4999257352771650151,2695305337569098618,1973,1973
-4876003296321717233,-4060513158963513109,1479,1479
-4876003296321717233,-2406154927270380003,1925,1925
-4876003296321717233,-273033171021384035,1468,1468
-4666453782075787270,2695305337569098618,2635,2635
-4060513158963513109,-3304550021239131016,7404,7404
-4060513158963513109,-2479076574622892161,1039,1039
-4060513158963513109,-273033171021384035,11992,11992
-4060513158963513109,871557107850427658,1272,1272
-4060513158963513109,1108832248229541119,2210,2210
-4060513158963513109,2768059539183056150,2924,2924
-4060513158963513109,5074974895441262076,1959,1959
-4060513158963513109,7341486337184709423,5164,5164
-4060513158963513109,7484248958687458596,3050,3050
-4050477985649184306,2695305337569098618,1352,1352
-3869629224220610070,-3304550021239131016,3601,3601
-3869629224220610070,-2406154927270380003,3058,3058
-3869629224220610070,2695305337569098618,2774,2774
-3810326145888079572,2695305337569098618,1415,1415
-3304550021239131016,-3268067683072787167,1320,1320
-3304550021239131016,-1092374183810287215,1760,1760
-3304550021239131016,603774118492778883,1187,1187
-3304550021239131016,2811838510934669772,4795,4795
-3304550021239131016,7341486337184709423,5313,5313
-3268067683072787167,-273033171021384035,1873,1873
-3268067683072787167,2695305337569098618,4180,4180
-3268067683072787167,3645692567939266464,1759,1759
-2479076574622892161,-2406154927270380003,1540,1540
-2479076574622892161,2695305337569098618,1211,1211
-2406154927270380003,-2179786877876424548,4167,4167
-2406154927270380003,-2159857214311285554,3264,3264
-2406154927270380003,-1423000256242238038,1084,1084
-2406154927270380003,871557107850427658,1904,1904
-2406154927270380003,3039183585666478258,2791,2791
-2406154927270380003,4064891571011074380,1952,1952
-2406154927270380003,5074974895441262076,2680,2680
-2406154927270380003,7341486337184709423,8028,8028
-2159857214311285554,-1092374183810287215,1970,1970
-2159857214311285554,2589265509983531627,6259,6259
-2159857214311285554,2695305337569098618,4763,4763
-2159857214311285554,2811838510934669772,1390,1390
-2159857214311285554,3039183585666478258,3069,3069
-2159857214311285554,7519427517373691798,2416,2416
-2158435871750802565,2695305337569098618,1047,1047
-1092374183810287215,-273033171021384035,1221,1221
-273033171021384035,2695305337569098618,8306,8306
-273033171021384035,2768059539183056150,2620,2620
-273033171021384035,2811838510934669772,4556,4556
-273033171021384035,3039183585666478258,1861,1861
-273033171021384035,4064891571011074380,1684,1684
-273033171021384035,8584721346566371541,1303,1303
603774118492778883,2695305337569098618,1208,1208
1108832248229541119,2695305337569098618,2335,2335
2087922859966410869,2695305337569098618,1705,1705
2695305337569098618,2768059539183056150,3536,3536
2695305337569098618,3039183585666478258,3449,3449
2695305337569098618,4064891571011074380,1601,1601
2695305337569098618,7519427517373691798,1695,1695
2768059539183056150,3645692567939266464,3201,3201
3645692567939266464,3946370886449903125,1535,1535
3645692567939266464,7341486337184709423,5233,5233
3645692567939266464,7484248958687458596,3965,3965
-9189283624875180872,-8745505558082406655,1572,1572
-9189283624875180872,-2159857214311285554,2200,2200
-9096232754884560930,-8638814388602130013,1005,1005
-9096232754884560930,-7784712059813151204,11346,11346
-9096232754884560930,-7675450448203336984,1649,1649
-9096232754884560930,-7426124097735608676,1097,1097
-9096232754884560930,-6806691435797463535,6584,6584
-9096232754884560930,-5904698658142210447,1400,1400
-9096232754884560930,-4999257352771650151,1948,1948
-9096232754884560930,-4666453782075787270,3416,3416
-9096232754884560930,-4129215337742647371,1675,1675
-9096232754884560930,-3268067683072787167,1754,1754
-9096232754884560930,-2158435871750802565,2247,2247
-9096232754884560930,-1423000256242238038,1057,1057
-9096232754884560930,603774118492778883,2540,2540
-9096232754884560930,1960646417337105237,3388,3388
-9096232754884560930,2589265509983531627,5052,5052
-9096232754884560930,5647053732965528546,1560,1560
-9096232754884560930,7341486337184709423,1343,1343
-9096232754884560930,7519427517373691798,4249,4249
-9096232754884560930,7847537258258185880,1294,1294
-8745505558082406655,-4999257352771650151,1467,1467
-8745505558082406655,-4129215337742647371,1855,1855
-8745505558082406655,-3810326145888079572,1070,1070
-8745505558082406655,-3304550021239131016,1793,1793
-8745505558082406655,-2158435871750802565,1443,1443
-8745505558082406655,-273033171021384035,1851,1851
-8745505558082406655,160009025870183982,1047,1047
-8745505558082406655,603774118492778883,1672,1672
-8745505558082406655,1960646417337105237,1931,1931
-8745505558082406655,2695305337569098618,3560,3560
-8745505558082406655,3645692567939266464,1387,1387
-8745505558082406655,7519427517373691798,4275,4275
-8638814388602130013,-7784712059813151204,1406,1406
-8476437303145384835,-7784712059813151204,1379,1379
-8476437303145384835,-2159857214311285554,1056,1056
-8476437303145384835,2695305337569098618,1284,1284
-7784712059813151204,-7702246673281502833,1330,1330
-7784712059813151204,-7426124097735608676,2233,2233
-7784712059813151204,-6835537133953598467,1154,1154
-7784712059813151204,-6806691435797463535,5934,5934
-7784712059813151204,-6174967750217613587,1910,1910
-7784712059813151204,-5835361465413913482,1284,1284
-7784712059813151204,-4999257352771650151,1910,1910
-7784712059813151204,-4666453782075787270,2943,2943
-7784712059813151204,-4060513158963513109,3904,3904
-7784712059813151204,-2179786877876424548,2702,2702
-7784712059813151204,-2159857214311285554,7939,7939
-7784712059813151204,-2158435871750802565,2367,2367
-7784712059813151204,-1521781524640025379,1375,1375
-7784712059813151204,-464204487869910793,1477,1477
-7784712059813151204,-273033171021384035,3757,3757
-7784712059813151204,2707166451744194534,2811,2811
-7784712059813151204,2768059539183056150,1241,1241
-7784712059813151204,3645692567939266464,3112,3112
-7784712059813151204,7057794358978688335,1558,1558
-7784712059813151204,7484248958687458596,1214,1214
-7784712059813151204,7744895437826374207,1372,1372
-7784712059813151204,7847537258258185880,1891,1891
-7702246673281502833,-4060513158963513109,3879,3879
-7702246673281502833,-2406154927270380003,5123,5123
-7702246673281502833,3645692567939266464,4182,4182
-7675450448203336984,-2159857214311285554,1953,1953
-7426124097735608676,-2159857214311285554,1293,1293
-6806691435797463535,-4060513158963513109,1753,1753
-6806691435797463535,-3304550021239131016,2180,2180
-6026813875032476846,-2159857214311285554,4200,4200
-6026813875032476846,-273033171021384035,2645,2645
-6026813875032476846,2695305337569098618,3509,3509
-5904698658142210447,2695305337569098618,1363,1363
-5414993972319602247,-2406154927270380003,2193,2193
-5414993972319602247,-273033171021384035,1558,1558
-5414993972319602247,3645692567939266464,1485,1485
-4999257352771650151,-4060513158963513109,1393,1393
-4999257352771650151,-2159857214311285554,1641,1641
-4876003296321717233,-3304550021239131016,1212,1212
-4876003296321717233,3645692567939266464,1313,1313
-4666453782075787270,-4060513158963513109,2393,2393
-4060513158963513109,-3268067683072787167,1974,1974
-4060513158963513109,-2406154927270380003,11909,11909
-4060513158963513109,-2179786877876424548,3870,3870
-4060513158963513109,-2159857214311285554,2648,2648
-4060513158963513109,-1092374183810287215,1301,1301
-4060513158963513109,2695305337569098618,8959,8959
-4060513158963513109,2811838510934669772,5098,5098
-4060513158963513109,3039183585666478258,1922,1922
-3869629224220610070,3645692567939266464,2064,2064
-3810326145888079572,-2406154927270380003,1423,1423
-3304550021239131016,-2479076574622892161,1043,1043
-3304550021239131016,-2406154927270380003,9164,9164
-3304550021239131016,-273033171021384035,6497,6497
-3304550021239131016,2695305337569098618,7253,7253
-3304550021239131016,2768059539183056150,2169,2169
-3304550021239131016,3039183585666478258,2610,2610
-3304550021239131016,3645692567939266464,4966,4966
-3304550021239131016,4064891571011074380,1577,1577
-3304550021239131016,8584721346566371541,1310,1310
-3268067683072787167,-2406154927270380003,2141,2141
-2406154927270380003,-273033171021384035,11040,11040
-2406154927270380003,1960646417337105237,1383,1383
-2406154927270380003,2087922859966410869,1943,1943
-2406154927270380003,2589265509983531627,1901,1901
-2406154927270380003,2811838510934669772,6278,6278
-2406154927270380003,3645692567939266464,6229,6229
-2406154927270380003,3946370886449903125,1123,1123
-2406154927270380003,7484248958687458596,5811,5811
-2406154927270380003,7519427517373691798,1136,1136
-2179786877876424548,-2159857214311285554,4111,4111
-2179786877876424548,-273033171021384035,3576,3576
-2159857214311285554,-273033171021384035,2621,2621
-2159857214311285554,160009025870183982,1641,1641
-2159857214311285554,411522172308304650,1237,1237
-2159857214311285554,2707166451744194534,4862,4862
-2159857214311285554,3645692567939266464,1658,1658
-1092374183810287215,2695305337569098618,2132,2132
-273033171021384035,871557107850427658,1179,1179
-273033171021384035,2589265509983531627,1328,1328
-273033171021384035,3645692567939266464,5600,5600
-273033171021384035,5074974895441262076,1747,1747
-273033171021384035,7484248958687458596,2885,2885
871557107850427658,2695305337569098618,1593,1593
1108832248229541119,3645692567939266464,1082,1082
2589265509983531627,3645692567939266464,1347,1347
2695305337569098618,2707166451744194534,1426,1426
2695305337569098618,4462447588911890185,1622,1622
2695305337569098618,4775248038139805003,2394,2394
2695305337569098618,5074974895441262076,2361,2361
2695305337569098618,7341486337184709423,6550,6550
2695305337569098618,7484248958687458596,5019,5019
2811838510934669772,3645692567939266464,2522,2522
3039183585666478258,3645692567939266464,1035,1035
3645692567939266464,4462447588911890185,1406,1406
3645692567939266464,4775248038139805003,1988,1988
3645692567939266464,8584721346566371541,1804,1804
