Source,Target,weight,label
-9189283624875180872,-7784712059813151204,3345,3345
-9189283624875180872,-7675450448203336984,2833,2833
-9189283624875180872,-6806691435797463535,606,606
-9189283624875180872,-4999257352771650151,725,725
-9189283624875180872,-4876003296321717233,534,534
-9189283624875180872,-4659302083593487529,530,530
-9189283624875180872,-4387858203142964056,902,902
-9189283624875180872,-4060513158963513109,1868,1868
-9189283624875180872,-3304550021239131016,1221,1221
-9189283624875180872,-3268067683072787167,1981,1981
-9189283624875180872,-2406154927270380003,2618,2618
-9189283624875180872,-273033171021384035,1928,1928
-9189283624875180872,2589265509983531627,1589,1589
-9189283624875180872,2695305337569098618,2812,2812
-9189283624875180872,2707166451744194534,772,772
-9189283624875180872,2811838510934669772,867,867
-9189283624875180872,3645692567939266464,1686,1686
-9189283624875180872,4775248038139805003,632,632
-9189283624875180872,5074974895441262076,1484,1484
-9189283624875180872,5669528293118392224,1181,1181
-9189283624875180872,7341486337184709423,1359,1359
-9189283624875180872,7519427517373691798,761,761
-9189283624875180872,8584721346566371541,705,705
-9096232754884560930,-7537657905707207481,643,643
-9096232754884560930,-6861850936062169047,796,796
-9096232754884560930,-6657017815155132421,641,641
-9096232754884560930,-6174967750217613587,1526,1526
-9096232754884560930,-6026813875032476846,7707,7707
-9096232754884560930,-5440734165330348305,951,951
-9096232754884560930,-5264754114606649098,1912,1912
-9096232754884560930,-4060513158963513109,4872,4872
-9096232754884560930,-3869629224220610070,1075,1075
-9096232754884560930,-3810326145888079572,2273,2273
-9096232754884560930,-3700314938593300040,620,620
-9096232754884560930,-3522223837183396362,1760,1760
-9096232754884560930,-2337037304635902232,863,863
-9096232754884560930,-1985366962235755618,768,768
-9096232754884560930,-560123512857411715,696,696
-9096232754884560930,160009025870183982,1527,1527
-9096232754884560930,1033778921950427255,1139,1139
-9096232754884560930,1108832248229541119,1669,1669
-9096232754884560930,2707166451744194534,3666,3666
-9096232754884560930,2811838510934669772,3072,3072
-9096232754884560930,3039183585666478258,6792,6792
-9096232754884560930,3142100258669736279,593,593
-9096232754884560930,3645692567939266464,2605,2605
-9096232754884560930,3885007491926212353,695,695
-9096232754884560930,4064891571011074380,753,753
-9096232754884560930,6903485232791761071,511,511
-9096232754884560930,7744895437826374207,779,779
-9054730520840161619,-4666453782075787270,829,829
-9054730520840161619,-3304550021239131016,1110,1110
-9054730520840161619,-2406154927270380003,1310,1310
-9054730520840161619,-2159857214311285554,1064,1064
-9054730520840161619,-273033171021384035,789,789
-9054730520840161619,2695305337569098618,1466,1466
-9054730520840161619,2811838510934669772,743,743
-9054730520840161619,3039183585666478258,2808,2808
-9045514412949687915,-8641629872156953748,514,514
-9045514412949687915,-1036264720951525578,641,641
-9045514412949687915,4871551355561784252,540,540
-8984704452568796311,-8641629872156953748,706,706
-8984704452568796311,-4050477985649184306,1200,1200
-8984704452568796311,-3268067683072787167,746,746
-8891087951811101969,160009025870183982,1085,1085
-8891087951811101969,1033778921950427255,742,742
-8891087951811101969,2589265509983531627,645,645
-8745505558082406655,-8638814388602130013,908,908
-8745505558082406655,-8476437303145384835,1073,1073
-8745505558082406655,-7784712059813151204,6129,6129
-8745505558082406655,-6944071657116387530,771,771
-8745505558082406655,-6174967750217613587,1529,1529
-8745505558082406655,-6026813875032476846,3082,3082
-8745505558082406655,-5835361465413913482,653,653
-8745505558082406655,-5440734165330348305,583,583
-8745505558082406655,-4060513158963513109,1919,1919
-8745505558082406655,-3869629224220610070,574,574
-8745505558082406655,-2179786877876424548,2888,2888
-8745505558082406655,457644081920749895,686,686
-8745505558082406655,2589265509983531627,2987,2987
-8745505558082406655,2811838510934669772,1097,1097
-8745505558082406655,3039183585666478258,4132,4132
-8745505558082406655,5647053732965528546,709,709
-8745505558082406655,6059137422770648348,1340,1340
-8745505558082406655,7847537258258185880,925,925
-8641629872156953748,-3268067683072787167,965,965
-8641629872156953748,3869554326824106163,504,504
-8641629872156953748,8584721346566371541,803,803
-8638814388602130013,3039183585666478258,1517,1517
-8491974549885993122,-4288244399130394731,3048,3048
-8491974549885993122,-1788134360438261396,1365,1365
-8476437303145384835,-6026813875032476846,788,788
-8476437303145384835,-4666453782075787270,579,579
-8476437303145384835,-2406154927270380003,1118,1118
-8476437303145384835,-2179786877876424548,829,829
-8476437303145384835,3645692567939266464,763,763
-8445470335412454848,-7784712059813151204,1317,1317
-8445470335412454848,3039183585666478258,1326,1326
-8214467404883938797,-7784712059813151204,502,502
-8214467404883938797,2589265509983531627,625,625
-8102260625013720780,-1521781524640025379,704,704
-7893553258893394166,3193173518988490583,1519,1519
-7784712059813151204,-7675450448203336984,1734,1734
-7784712059813151204,-7537657905707207481,779,779
-7784712059813151204,-6861850936062169047,1161,1161
-7784712059813151204,-6657017815155132421,829,829
-7784712059813151204,-6026813875032476846,6791,6791
-7784712059813151204,-5846950087260686514,775,775
-7784712059813151204,-5264754114606649098,980,980
-7784712059813151204,-4995287720068695020,857,857
-7784712059813151204,-4674365320703232734,758,758
-7784712059813151204,-4129215337742647371,739,739
-7784712059813151204,-3810326145888079572,3302,3302
-7784712059813151204,-3700314938593300040,678,678
-7784712059813151204,-3358320156885107738,1198,1198
-7784712059813151204,-3268067683072787167,3188,3188
-7784712059813151204,-1092374183810287215,5889,5889
-7784712059813151204,160009025870183982,2572,2572
-7784712059813151204,411522172308304650,992,992
-7784712059813151204,1033778921950427255,1691,1691
-7784712059813151204,2046717060284365437,536,536
-7784712059813151204,2435365756379674207,594,594
-7784712059813151204,2589265509983531627,7035,7035
-7784712059813151204,2695305337569098618,7241,7241
-7784712059813151204,2811838510934669772,2354,2354
-7784712059813151204,3039183585666478258,9421,9421
-7784712059813151204,5074974895441262076,1515,1515
-7784712059813151204,6059137422770648348,1438,1438
-7784712059813151204,6405593197437662758,698,698
-7784712059813151204,7519427517373691798,2732,2732
-7784712059813151204,8458982604760233040,714,714
-7759278799329347035,-4666453782075787270,582,582
-7759278799329347035,-273033171021384035,562,562
-7702246673281502833,-6082952131478998945,583,583
-7702246673281502833,-5414993972319602247,1054,1054
-7702246673281502833,-4999257352771650151,958,958
-7702246673281502833,-2159857214311285554,550,550
-7702246673281502833,-273033171021384035,3452,3452
-7702246673281502833,2695305337569098618,4621,4621
-7702246673281502833,2768059539183056150,3556,3556
-7702246673281502833,2811838510934669772,1495,1495
-7702246673281502833,4064891571011074380,537,537
-7702246673281502833,5074974895441262076,777,777
-7702246673281502833,6037207175837857529,595,595
-7675450448203336984,-6026813875032476846,556,556
-7675450448203336984,2695305337569098618,742,742
-7675450448203336984,2707166451744194534,834,834
-7537657905707207481,-6806691435797463535,607,607
-7426124097735608676,-6026813875032476846,916,916
-7426124097735608676,2707166451744194534,804,804
-6944071657116387530,-2159857214311285554,548,548
-6871805885232958587,-4050477985649184306,1606,1606
-6861850936062169047,-3810326145888079572,631,631
-6861850936062169047,-2406154927270380003,666,666
-6861850936062169047,-1092374183810287215,507,507
-6861850936062169047,1960646417337105237,556,556
-6835537133953598467,-1092374183810287215,655,655
-6835537133953598467,3039183585666478258,1205,1205
-6806691435797463535,-6026813875032476846,5080,5080
-6806691435797463535,-5904698658142210447,723,723
-6806691435797463535,-5264754114606649098,593,593
-6806691435797463535,-4999257352771650151,517,517
-6806691435797463535,-4666453782075787270,1370,1370
-6806691435797463535,-3869629224220610070,521,521
-6806691435797463535,-2406154927270380003,2538,2538
-6806691435797463535,-2159857214311285554,2975,2975
-6806691435797463535,-2158435871750802565,559,559
-6806691435797463535,-1423000256242238038,1053,1053
-6806691435797463535,160009025870183982,631,631
-6806691435797463535,1108832248229541119,953,953
-6806691435797463535,2589265509983531627,1174,1174
-6806691435797463535,2695305337569098618,2589,2589
-6806691435797463535,2707166451744194534,1007,1007
-6806691435797463535,2811838510934669772,1450,1450
-6806691435797463535,3645692567939266464,894,894
-6806691435797463535,7519427517373691798,904,904
-6659696680396705782,-4060513158963513109,549,549
-6659696680396705782,-4050477985649184306,2048,2048
-6659696680396705782,5269705119417905242,722,722
-6659696680396705782,8245816881551523383,1031,1031
-6174967750217613587,-1092374183810287215,1381,1381
-6174967750217613587,1960646417337105237,519,519
-6174967750217613587,2695305337569098618,589,589
-6148556074643278874,2695305337569098618,569,569
-6082952131478998945,-4060513158963513109,550,550
-6082952131478998945,-3304550021239131016,507,507
-6082952131478998945,-2406154927270380003,788,788
-6082952131478998945,3645692567939266464,628,628
-6082952131478998945,7484248958687458596,517,517
-6026813875032476846,-4999257352771650151,855,855
-6026813875032476846,-4666453782075787270,2169,2169
-6026813875032476846,-4659034257681990730,745,745
-6026813875032476846,-3522223837183396362,3060,3060
-6026813875032476846,-3304550021239131016,2872,2872
-6026813875032476846,-3268067683072787167,1002,1002
-6026813875032476846,-2406154927270380003,3533,3533
-6026813875032476846,-2179786877876424548,1767,1767
-6026813875032476846,-2158435871750802565,786,786
-6026813875032476846,-1423000256242238038,839,839
-6026813875032476846,160009025870183982,1146,1146
-6026813875032476846,865030606091400331,635,635
-6026813875032476846,1033778921950427255,633,633
-6026813875032476846,1960646417337105237,1942,1942
-6026813875032476846,2811838510934669772,1867,1867
-6026813875032476846,3645692567939266464,1340,1340
-6026813875032476846,5074974895441262076,811,811
-6026813875032476846,7847537258258185880,642,642
-5904698658142210447,-4060513158963513109,673,673
-5904698658142210447,-3268067683072787167,1132,1132
-5904698658142210447,-2406154927270380003,940,940
-5904698658142210447,2589265509983531627,882,882
-5904698658142210447,3645692567939266464,511,511
-5846950087260686514,3039183585666478258,623,623
-5835361465413913482,-2406154927270380003,904,904
-5835361465413913482,-2159857214311285554,716,716
-5440734165330348305,-2159857214311285554,557,557
-5440734165330348305,5647053732965528546,577,577
-5414993972319602247,-4060513158963513109,1827,1827
-5414993972319602247,-3869629224220610070,618,618
-5414993972319602247,2695305337569098618,1930,1930
-5414993972319602247,2811838510934669772,824,824
-5414993972319602247,7341486337184709423,1681,1681
-5264754114606649098,-3304550021239131016,580,580
-5264754114606649098,-2406154927270380003,725,725
-5264754114606649098,1960646417337105237,1074,1074
-4999257352771650151,-3268067683072787167,628,628
-4999257352771650151,-2406154927270380003,1805,1805
-4999257352771650151,1960646417337105237,540,540
-4999257352771650151,2589265509983531627,902,902
-4999257352771650151,3645692567939266464,1139,1139
-4999257352771650151,7341486337184709423,891,891
-4999257352771650151,7484248958687458596,665,665
-4999257352771650151,7519427517373691798,614,614
-4995287720068695020,160009025870183982,681,681
-4876003296321717233,2695305337569098618,2061,2061
-4876003296321717233,2768059539183056150,977,977
-4876003296321717233,7341486337184709423,1608,1608
-4876003296321717233,7484248958687458596,1356,1356
-4674365320703232734,-2406154927270380003,922,922
-4674365320703232734,2695305337569098618,863,863
-4674365320703232734,2768059539183056150,580,580
-4674365320703232734,3645692567939266464,688,688
-4666453782075787270,-3304550021239131016,2318,2318
-4666453782075787270,-2406154927270380003,2867,2867
-4666453782075787270,-2159857214311285554,1498,1498
-4666453782075787270,-1092374183810287215,1573,1573
-4666453782075787270,-273033171021384035,2156,2156
-4666453782075787270,1960646417337105237,866,866
-4666453782075787270,3645692567939266464,1219,1219
-4666453782075787270,7519427517373691798,671,671
-4659034257681990730,-4288244399130394731,5311,5311
-4659034257681990730,-2952728705836369114,708,708
-4387858203142964056,-2158435871750802565,648,648
-4387858203142964056,1108832248229541119,598,598
-4129215337742647371,-2179786877876424548,1008,1008
-4129215337742647371,2695305337569098618,755,755
-4060513158963513109,-4050477985649184306,1175,1175
-4060513158963513109,-3869629224220610070,2530,2530
-4060513158963513109,-3810326145888079572,943,943
-4060513158963513109,-1043076841826534975,1246,1246
-4060513158963513109,1960646417337105237,1025,1025
-4060513158963513109,2087922859966410869,1490,1490
-4060513158963513109,2589265509983531627,1256,1256
-4060513158963513109,3645692567939266464,6235,6235
-4060513158963513109,4064891571011074380,2625,2625
-4060513158963513109,4462447588911890185,1253,1253
-4060513158963513109,4775248038139805003,1872,1872
-4060513158963513109,7519427517373691798,871,871
-4060513158963513109,8584721346566371541,1636,1636
-4050477985649184306,-3268067683072787167,1692,1692
-4050477985649184306,-2406154927270380003,758,758
-4050477985649184306,-640714437086923058,630,630
-4050477985649184306,-273033171021384035,1140,1140
-4050477985649184306,1359897965706296826,841,841
-4050477985649184306,3193173518988490583,815,815
-4050477985649184306,4064891571011074380,556,556
-4050477985649184306,8584721346566371541,1012,1012
-3869629224220610070,-2159857214311285554,542,542
-3869629224220610070,-1092374183810287215,504,504
-3869629224220610070,-273033171021384035,2197,2197
-3869629224220610070,5074974895441262076,794,794
-3869629224220610070,7341486337184709423,2349,2349
-3810326145888079572,-3304550021239131016,1282,1282
-3810326145888079572,603774118492778883,1081,1081
-3810326145888079572,1108832248229541119,575,575
-3810326145888079572,7744895437826374207,514,514
-3522223837183396362,-2406154927270380003,1171,1171
-3522223837183396362,-273033171021384035,841,841
-3522223837183396362,2695305337569098618,826,826
-3473508732087881092,5459520483848108657,626,626
-3365402510077576223,2695305337569098618,570,570
-3304550021239131016,-2179786877876424548,2335,2335
-3304550021239131016,-2159857214311285554,1993,1993
-3304550021239131016,-1423000256242238038,850,850
-3304550021239131016,-1043076841826534975,812,812
-3304550021239131016,871557107850427658,767,767
-3304550021239131016,1108832248229541119,1949,1949
-3304550021239131016,1960646417337105237,1343,1343
-3304550021239131016,2087922859966410869,1543,1543
-3304550021239131016,4775248038139805003,1342,1342
-3304550021239131016,5074974895441262076,2218,2218
-3304550021239131016,7484248958687458596,4006,4006
-3268067683072787167,-2159857214311285554,1460,1460
-3268067683072787167,-2158435871750802565,1023,1023
-3268067683072787167,1108832248229541119,850,850
-3268067683072787167,2589265509983531627,1110,1110
-3268067683072787167,2811838510934669772,705,705
-3268067683072787167,5074974895441262076,962,962
-3268067683072787167,5269705119417905242,846,846
-3268067683072787167,8245816881551523383,984,984
-2963289861426299037,-534729352155942409,530,530
-2479076574622892161,2768059539183056150,565,565
-2479076574622892161,7484248958687458596,874,874
-2406154927270380003,-2158435871750802565,728,728
-2406154927270380003,-1092374183810287215,1657,1657
-2406154927270380003,-1043076841826534975,1240,1240
-2406154927270380003,603774118492778883,1061,1061
-2406154927270380003,1108832248229541119,2791,2791
-2406154927270380003,2176853502720618633,751,751
-2406154927270380003,2695305337569098618,11203,11203
-2406154927270380003,2768059539183056150,4154,4154
-2406154927270380003,4462447588911890185,1790,1790
-2406154927270380003,4775248038139805003,2612,2612
-2406154927270380003,8584721346566371541,2400,2400
-2337037304635902232,-2179786877876424548,933,933
-2179786877876424548,457644081920749895,1213,1213
-2179786877876424548,2589265509983531627,2756,2756
-2179786877876424548,2695305337569098618,4238,4238
-2179786877876424548,2754757901767751842,607,607
-2179786877876424548,2768059539183056150,829,829
-2179786877876424548,3645692567939266464,2152,2152
-2179786877876424548,5074974895441262076,698,698
-2179786877876424548,5647053732965528546,1704,1704
-2179786877876424548,7484248958687458596,1082,1082
-2159857214311285554,-2158435871750802565,2498,2498
-2159857214311285554,457644081920749895,753,753
-2159857214311285554,603774118492778883,1040,1040
-2159857214311285554,1033778921950427255,1014,1014
-2159857214311285554,1960646417337105237,2070,2070
-2159857214311285554,2421156375800528076,589,589
-2159857214311285554,2435365756379674207,655,655
-2159857214311285554,7847537258258185880,825,825
-2158435871750802565,1108832248229541119,684,684
-2158435871750802565,3039183585666478258,519,519
-2158435871750802565,7519427517373691798,621,621
-1423000256242238038,-273033171021384035,733,733
-1423000256242238038,1960646417337105237,773,773
-1092374183810287215,-464204487869910793,622,622
-1092374183810287215,7744895437826374207,591,591
-1092374183810287215,7847537258258185880,879,879
-1043076841826534975,-273033171021384035,816,816
-1043076841826534975,2695305337569098618,1019,1019
-1043076841826534975,2811838510934669772,779,779
-273033171021384035,1108832248229541119,1983,1983
-273033171021384035,1960646417337105237,885,885
-273033171021384035,2087922859966410869,1348,1348
-273033171021384035,2707166451744194534,568,568
-273033171021384035,4462447588911890185,1237,1237
-273033171021384035,4775248038139805003,1787,1787
-273033171021384035,7341486337184709423,3712,3712
160009025870183982,2589265509983531627,2211,2211
160009025870183982,7519427517373691798,558,558
411522172308304650,2707166451744194534,870,870
603774118492778883,7519427517373691798,641,641
666567786754159431,810443090478841200,570,570
871557107850427658,2768059539183056150,1449,1449
871557107850427658,3645692567939266464,1383,1383
871557107850427658,4775248038139805003,1387,1387
1033778921950427255,6059137422770648348,673,673
1033778921950427255,7519427517373691798,569,569
1108832248229541119,7057794358978688335,549,549
1359897965706296826,8584721346566371541,515,515
1960646417337105237,2695305337569098618,1866,1866
1960646417337105237,7744895437826374207,693,693
2087922859966410869,3645692567939266464,1324,1324
2273687203114921985,7341486337184709423,622,622
2273687203114921985,7484248958687458596,508,508
2421156375800528076,3039183585666478258,618,618
2589265509983531627,2695305337569098618,3309,3309
2589265509983531627,7341486337184709423,623,623
2695305337569098618,2811838510934669772,4749,4749
2695305337569098618,3142100258669736279,558,558
2695305337569098618,3645692567939266464,6620,6620
2695305337569098618,7429265519267953816,603,603
2695305337569098618,8584721346566371541,2308,2308
2768059539183056150,4462447588911890185,1401,1401
2768059539183056150,7341486337184709423,3003,3003
2768059539183056150,7484248958687458596,2543,2543
2811838510934669772,3039183585666478258,1604,1604
3039183585666478258,6059137422770648348,778,778
3479339888868143140,5269705119417905242,706,706
3645692567939266464,4064891571011074380,1094,1094
3645692567939266464,5074974895441262076,1422,1422
3645692567939266464,6037207175837857529,540,540
4064891571011074380,7484248958687458596,760,760
4357639940090376395,7341486337184709423,510,510
4462447588911890185,4775248038139805003,2212,2212
4775248038139805003,7484248958687458596,1762,1762
5074974895441262076,7341486337184709423,1758,1758
5269705119417905242,8584721346566371541,721,721
5558406874053753951,5669528293118392224,2292,2292
5669528293118392224,9150747732172486108,948,948
7484248958687458596,8584721346566371541,1448,1448
-9189283624875180872,-9096232754884560930,2515,2515
-9189283624875180872,-6026813875032476846,1030,1030
-9189283624875180872,-5904698658142210447,571,571
-9189283624875180872,-4666453782075787270,731,731
-9189283624875180872,-2179786877876424548,1191,1191
-9189283624875180872,-1092374183810287215,587,587
-9189283624875180872,871557107850427658,513,513
-9189283624875180872,1108832248229541119,1277,1277
-9189283624875180872,2768059539183056150,931,931
-9189283624875180872,7057794358978688335,2134,2134
-9189283624875180872,7484248958687458596,798,798
-9096232754884560930,-9054730520840161619,2389,2389
-9096232754884560930,-8745505558082406655,9384,9384
-9096232754884560930,-8476437303145384835,1596,1596
-9096232754884560930,-8445470335412454848,955,955
-9096232754884560930,-7702246673281502833,762,762
-9096232754884560930,-6944071657116387530,907,907
-9096232754884560930,-6835537133953598467,795,795
-9096232754884560930,-5835361465413913482,1196,1196
-9096232754884560930,-4674365320703232734,643,643
-9096232754884560930,-3304550021239131016,4239,4239
-9096232754884560930,-2733769994685039948,508,508
-9096232754884560930,-2406154927270380003,5822,5822
-9096232754884560930,-2179786877876424548,6186,6186
-9096232754884560930,-2159857214311285554,10703,10703
-9096232754884560930,-1092374183810287215,4607,4607
-9096232754884560930,-464204487869910793,1040,1040
-9096232754884560930,-273033171021384035,4648,4648
-9096232754884560930,411522172308304650,1247,1247
-9096232754884560930,457644081920749895,1036,1036
-9096232754884560930,865030606091400331,1168,1168
-9096232754884560930,1695560610886202841,529,529
-9096232754884560930,1768082660194401914,773,773
-9096232754884560930,2435365756379674207,665,665
-9096232754884560930,2695305337569098618,7179,7179
-9096232754884560930,5074974895441262076,1175,1175
-9096232754884560930,6059137422770648348,1168,1168
-9096232754884560930,7057794358978688335,1027,1027
-9096232754884560930,7484248958687458596,624,624
-9054730520840161619,-8745505558082406655,1038,1038
-9054730520840161619,-7784712059813151204,3337,3337
-9054730520840161619,-6861850936062169047,588,588
-9054730520840161619,-6026813875032476846,1607,1607
-9054730520840161619,-4060513158963513109,829,829
-9054730520840161619,603774118492778883,904,904
-9054730520840161619,1960646417337105237,1357,1357
-8984704452568796311,3193173518988490583,562,562
-8984704452568796311,5269705119417905242,721,721
-8984704452568796311,8245816881551523383,705,705
-8891087951811101969,-7426124097735608676,1091,1091
-8745505558082406655,-7675450448203336984,907,907
-8745505558082406655,-7426124097735608676,742,742
-8745505558082406655,-6806691435797463535,2009,2009
-8745505558082406655,-5846950087260686514,1062,1062
-8745505558082406655,-5264754114606649098,952,952
-8745505558082406655,-4666453782075787270,1791,1791
-8745505558082406655,-3358320156885107738,754,754
-8745505558082406655,-3268067683072787167,827,827
-8745505558082406655,-2406154927270380003,2362,2362
-8745505558082406655,-2159857214311285554,5411,5411
-8745505558082406655,-1092374183810287215,3103,3103
-8745505558082406655,-464204487869910793,660,660
-8745505558082406655,411522172308304650,1210,1210
-8745505558082406655,1108832248229541119,595,595
-8745505558082406655,1768082660194401914,802,802
-8745505558082406655,2435365756379674207,558,558
-8745505558082406655,2707166451744194534,2235,2235
-8641629872156953748,-8491974549885993122,747,747
-8641629872156953748,-6659696680396705782,629,629
-8641629872156953748,-5279551511944939224,1359,1359
-8641629872156953748,2695305337569098618,638,638
-8641629872156953748,3479339888868143140,686,686
-8641629872156953748,5269705119417905242,3821,3821
-8491974549885993122,-4659034257681990730,3435,3435
-8481753544240448093,-7784712059813151204,676,676
-8481753544240448093,-7426124097735608676,958,958
-8476437303145384835,-3268067683072787167,767,767
-8476437303145384835,-273033171021384035,740,740
-8445470335412454848,-6026813875032476846,603,603
-8297720995641411256,-3268067683072787167,700,700
-7784712059813151204,-6944071657116387530,840,840
-7784712059813151204,-5904698658142210447,1572,1572
-7784712059813151204,-4387858203142964056,2130,2130
-7784712059813151204,-3869629224220610070,1232,1232
-7784712059813151204,-3522223837183396362,1345,1345
-7784712059813151204,-3473508732087881092,555,555
-7784712059813151204,-3304550021239131016,4039,4039
-7784712059813151204,-2733769994685039948,591,591
-7784712059813151204,-2406154927270380003,5685,5685
-7784712059813151204,-2159223491519827085,663,663
-7784712059813151204,-1423000256242238038,1571,1571
-7784712059813151204,603774118492778883,3234,3234
-7784712059813151204,1108832248229541119,1879,1879
-7784712059813151204,1695560610886202841,645,645
-7784712059813151204,1768082660194401914,843,843
-7784712059813151204,1960646417337105237,3572,3572
-7784712059813151204,3946370886449903125,567,567
-7784712059813151204,5371115335115552567,571,571
-7784712059813151204,7341486337184709423,2086,2086
-7759278799329347035,-3304550021239131016,679,679
-7702246673281502833,-3304550021239131016,3194,3194
-7702246673281502833,3946370886449903125,734,734
-7702246673281502833,7484248958687458596,3221,3221
-7702246673281502833,8584721346566371541,1345,1345
-7675450448203336984,-3268067683072787167,789,789
-7675450448203336984,-2179786877876424548,517,517
-7675450448203336984,-2158435871750802565,4905,4905
-7675450448203336984,-1521781524640025379,507,507
-7675450448203336984,2589265509983531627,1117,1117
-7675450448203336984,7057794358978688335,1235,1235
-7522256951008805817,-2963289861426299037,507,507
-6871805885232958587,-6659696680396705782,730,730
-6871805885232958587,8245816881551523383,812,812
-6861850936062169047,-6026813875032476846,591,591
-6861850936062169047,2695305337569098618,612,612
-6861850936062169047,3039183585666478258,992,992
-6806691435797463535,-6174967750217613587,648,648
-6806691435797463535,-5835361465413913482,576,576
-6806691435797463535,-3700314938593300040,582,582
-6806691435797463535,-3522223837183396362,1853,1853
-6806691435797463535,-273033171021384035,1710,1710
-6806691435797463535,1960646417337105237,2130,2130
-6806691435797463535,7744895437826374207,676,676
-6294258839182494498,2589265509983531627,511,511
-6174967750217613587,603774118492778883,715,715
-6026813875032476846,-5904698658142210447,1061,1061
-6026813875032476846,-4129215337742647371,530,530
-6026813875032476846,-4060513158963513109,2724,2724
-6026813875032476846,-1092374183810287215,2482,2482
-6026813875032476846,-464204487869910793,536,536
-6026813875032476846,603774118492778883,1384,1384
-6026813875032476846,7341486337184709423,783,783
-5904698658142210447,-2159857214311285554,1251,1251
-5904698658142210447,-273033171021384035,629,629
-5835361465413913482,-4999257352771650151,1356,1356
-5835361465413913482,-4060513158963513109,717,717
-5835361465413913482,-3304550021239131016,727,727
-5835361465413913482,3039183585666478258,801,801
-5440734165330348305,-2179786877876424548,1016,1016
-5414993972319602247,-3304550021239131016,1419,1419
-5414993972319602247,4064891571011074380,594,594
-5414993972319602247,4775248038139805003,577,577
-5279551511944939224,-4050477985649184306,841,841
-5279551511944939224,5269705119417905242,974,974
-5264754114606649098,-2179786877876424548,895,895
-5264754114606649098,-2159857214311285554,1404,1404
-5264754114606649098,-273033171021384035,573,573
-5264754114606649098,2695305337569098618,994,994
-4999257352771650151,-3304550021239131016,1054,1054
-4999257352771650151,-2179786877876424548,985,985
-4999257352771650151,-1092374183810287215,702,702
-4999257352771650151,-273033171021384035,1261,1261
-4999257352771650151,2695305337569098618,1973,1973
-4999257352771650151,2768059539183056150,752,752
-4999257352771650151,4462447588911890185,509,509
-4995287720068695020,2589265509983531627,755,755
-4876003296321717233,-4060513158963513109,1479,1479
-4876003296321717233,-4050477985649184306,864,864
-4876003296321717233,-3869629224220610070,535,535
-4876003296321717233,-2406154927270380003,1925,1925
-4876003296321717233,-273033171021384035,1468,1468
-4876003296321717233,8245816881551523383,533,533
-4876003296321717233,8584721346566371541,856,856
-4674365320703232734,-4060513158963513109,611,611
-4674365320703232734,2589265509983531627,565,565
-4666453782075787270,-3810326145888079572,891,891
-4666453782075787270,-3522223837183396362,673,673
-4666453782075787270,-2179786877876424548,1458,1458
-4666453782075787270,1108832248229541119,817,817
-4666453782075787270,2695305337569098618,2635,2635
-4666453782075787270,5074974895441262076,710,710
-4666453782075787270,6037207175837857529,595,595
-4666453782075787270,7341486337184709423,1069,1069
-4525159313658004335,2046717060284365437,526,526
-4387858203142964056,-1521781524640025379,925,925
-4387858203142964056,5074974895441262076,572,572
-4288244399130394731,-1788134360438261396,1038,1038
-4129215337742647371,-4060513158963513109,528,528
-4129215337742647371,-2159857214311285554,995,995
-4129215337742647371,7519427517373691798,641,641
-4060513158963513109,-3522223837183396362,867,867
-4060513158963513109,-3304550021239131016,7404,7404
-4060513158963513109,-2479076574622892161,1039,1039
-4060513158963513109,-1423000256242238038,744,744
-4060513158963513109,-273033171021384035,11992,11992
-4060513158963513109,457644081920749895,532,532
-4060513158963513109,603774118492778883,825,825
-4060513158963513109,871557107850427658,1272,1272
-4060513158963513109,1108832248229541119,2210,2210
-4060513158963513109,2707166451744194534,549,549
-4060513158963513109,2768059539183056150,2924,2924
-4060513158963513109,5074974895441262076,1959,1959
-4060513158963513109,7341486337184709423,5164,5164
-4060513158963513109,7484248958687458596,3050,3050
-4050477985649184306,-3296130994422989526,1147,1147
-4050477985649184306,-1788134360438261396,617,617
-4050477985649184306,2695305337569098618,1352,1352
-4050477985649184306,3869554326824106163,929,929
-4050477985649184306,5269705119417905242,2190,2190
-4050477985649184306,7341486337184709423,607,607
-4050477985649184306,8245816881551523383,4875,4875
-3869629224220610070,-3304550021239131016,3601,3601
-3869629224220610070,-3268067683072787167,557,557
-3869629224220610070,-2406154927270380003,3058,3058
-3869629224220610070,2695305337569098618,2774,2774
-3869629224220610070,2811838510934669772,1377,1377
-3869629224220610070,4462447588911890185,515,515
-3869629224220610070,4775248038139805003,676,676
-3810326145888079572,-2159857214311285554,948,948
-3810326145888079572,-1423000256242238038,812,812
-3810326145888079572,-1092374183810287215,1708,1708
-3810326145888079572,-273033171021384035,842,842
-3810326145888079572,1960646417337105237,1349,1349
-3810326145888079572,2695305337569098618,1415,1415
-3810326145888079572,2811838510934669772,867,867
-3810326145888079572,3039183585666478258,3390,3390
-3358320156885107738,-1092374183810287215,887,887
-3358320156885107738,3039183585666478258,840,840
-3304550021239131016,-3268067683072787167,1320,1320
-3304550021239131016,-1092374183810287215,1760,1760
-3304550021239131016,603774118492778883,1187,1187
-3304550021239131016,2635032086943250720,527,527
-3304550021239131016,2811838510934669772,4795,4795
-3304550021239131016,5647053732965528546,659,659
-3304550021239131016,7341486337184709423,5313,5313
-3304550021239131016,7519427517373691798,663,663
-3296130994422989526,8245816881551523383,647,647
-3268067683072787167,-2179786877876424548,1215,1215
-3268067683072787167,-1521781524640025379,1269,1269
-3268067683072787167,-273033171021384035,1873,1873
-3268067683072787167,2695305337569098618,4180,4180
-3268067683072787167,2768059539183056150,890,890
-3268067683072787167,3645692567939266464,1759,1759
-3268067683072787167,5669528293118392224,543,543
-3268067683072787167,7057794358978688335,738,738
-3268067683072787167,8584721346566371541,1769,1769
-2479076574622892161,-2406154927270380003,1540,1540
-2479076574622892161,2695305337569098618,1211,1211
-2479076574622892161,2811838510934669772,912,912
-2479076574622892161,7341486337184709423,986,986
-2406154927270380003,-2179786877876424548,4167,4167
-2406154927270380003,-2159857214311285554,3264,3264
-2406154927270380003,-1423000256242238038,1084,1084
-2406154927270380003,871557107850427658,1904,1904
-2406154927270380003,2273687203114921985,723,723
-2406154927270380003,2707166451744194534,760,760
-2406154927270380003,3039183585666478258,2791,2791
-2406154927270380003,4064891571011074380,1952,1952
-2406154927270380003,5074974895441262076,2680,2680
-2406154927270380003,5647053732965528546,898,898
-2406154927270380003,6037207175837857529,715,715
-2406154927270380003,7057794358978688335,502,502
-2406154927270380003,7341486337184709423,8028,8028
-2337037304635902232,-2159857214311285554,525,525
-2179786877876424548,-1043076841826534975,510,510
-2179786877876424548,2707166451744194534,1564,1564
-2179786877876424548,2811838510934669772,1970,1970
-2179786877876424548,3885007491926212353,630,630
-2179786877876424548,4775248038139805003,510,510
-2179786877876424548,7519427517373691798,1093,1093
-2179786877876424548,8584721346566371541,503,503
-2159857214311285554,-1092374183810287215,1970,1970
-2159857214311285554,-560123512857411715,892,892
-2159857214311285554,-464204487869910793,703,703
-2159857214311285554,1768082660194401914,512,512
-2159857214311285554,2589265509983531627,6259,6259
-2159857214311285554,2695305337569098618,4763,4763
-2159857214311285554,2811838510934669772,1390,1390
-2159857214311285554,3039183585666478258,3069,3069
-2159857214311285554,5074974895441262076,534,534
-2159857214311285554,5371115335115552567,606,606
-2159857214311285554,6405593197437662758,512,512
-2159857214311285554,7057794358978688335,905,905
-2159857214311285554,7519427517373691798,2416,2416
-2158435871750802565,2589265509983531627,1508,1508
-2158435871750802565,2695305337569098618,1047,1047
-2158435871750802565,2707166451744194534,1139,1139
-2158435871750802565,3645692567939266464,528,528
-2158435871750802565,7057794358978688335,1619,1619
-1521781524640025379,1108832248229541119,607,607
-1521781524640025379,5074974895441262076,615,615
-1423000256242238038,3039183585666478258,1287,1287
-1092374183810287215,-273033171021384035,1221,1221
-1092374183810287215,2421156375800528076,506,506
-1092374183810287215,3039183585666478258,5701,5701
-1092374183810287215,3645692567939266464,728,728
-1092374183810287215,6059137422770648348,555,555
-1092374183810287215,7519427517373691798,1158,1158
-1043076841826534975,7341486337184709423,629,629
-464204487869910793,3039183585666478258,1013,1013
-464204487869910793,7847537258258185880,606,606
-273033171021384035,2695305337569098618,8306,8306
-273033171021384035,2768059539183056150,2620,2620
-273033171021384035,2811838510934669772,4556,4556
-273033171021384035,3039183585666478258,1861,1861
-273033171021384035,3946370886449903125,630,630
-273033171021384035,4064891571011074380,1684,1684
-273033171021384035,8584721346566371541,1303,1303
160009025870183982,2707166451744194534,1096,1096
160009025870183982,6059137422770648348,785,785
411522172308304650,2589265509983531627,1207,1207
411522172308304650,2695305337569098618,532,532
603774118492778883,1960646417337105237,1118,1118
603774118492778883,2695305337569098618,1208,1208
603774118492778883,2811838510934669772,595,595
865030606091400331,2695305337569098618,514,514
871557107850427658,7341486337184709423,1393,1393
1033778921950427255,2707166451744194534,716,716
1033778921950427255,3039183585666478258,526,526
1108832248229541119,1960646417337105237,565,565
1108832248229541119,2695305337569098618,2335,2335
1108832248229541119,2811838510934669772,1980,1980
1108832248229541119,3039183585666478258,981,981
1108832248229541119,7341486337184709423,1295,1295
1108832248229541119,7484248958687458596,791,791
1359897965706296826,5269705119417905242,582,582
1960646417337105237,2589265509983531627,771,771
2087922859966410869,2695305337569098618,1705,1705
2087922859966410869,2811838510934669772,631,631
2128594542511665643,3039183585666478258,624,624
2589265509983531627,2707166451744194534,4595,4595
2589265509983531627,2768059539183056150,644,644
2589265509983531627,3142100258669736279,921,921
2589265509983531627,3574787208394128407,654,654
2589265509983531627,3946370886449903125,562,562
2589265509983531627,7519427517373691798,1650,1650
2695305337569098618,2768059539183056150,3536,3536
2695305337569098618,3039183585666478258,3449,3449
2695305337569098618,3946370886449903125,969,969
2695305337569098618,4064891571011074380,1601,1601
2695305337569098618,4357639940090376395,627,627
2695305337569098618,5647053732965528546,664,664
2695305337569098618,6037207175837857529,680,680
2695305337569098618,7519427517373691798,1695,1695
2695305337569098618,7744895437826374207,518,518
2695305337569098618,7847537258258185880,537,537
2768059539183056150,3645692567939266464,3201,3201
2768059539183056150,3946370886449903125,659,659
2768059539183056150,5074974895441262076,698,698
2768059539183056150,6037207175837857529,557,557
2768059539183056150,8584721346566371541,998,998
2811838510934669772,4064891571011074380,1280,1280
2811838510934669772,5074974895441262076,1940,1940
2811838510934669772,7341486337184709423,2814,2814
2811838510934669772,8584721346566371541,674,674
3039183585666478258,7341486337184709423,533,533
3039183585666478258,7519427517373691798,1659,1659
3039183585666478258,7847537258258185880,1326,1326
3645692567939266464,3946370886449903125,1535,1535
3645692567939266464,7341486337184709423,5233,5233
3645692567939266464,7484248958687458596,3965,3965
3869554326824106163,5269705119417905242,733,733
3869554326824106163,8245816881551523383,537,537
3946370886449903125,7341486337184709423,761,761
4064891571011074380,7341486337184709423,1192,1192
4462447588911890185,7484248958687458596,1196,1196
4775248038139805003,7341486337184709423,1960,1960
5074974895441262076,7484248958687458596,1253,1253
6037207175837857529,7341486337184709423,551,551
6059137422770648348,7519427517373691798,536,536
-9189283624875180872,-8745505558082406655,1572,1572
-9189283624875180872,-8476437303145384835,959,959
-9189283624875180872,-8102260625013720780,548,548
-9189283624875180872,-7702246673281502833,1037,1037
-9189283624875180872,-2159857214311285554,2200,2200
-9189283624875180872,-2158435871750802565,4119,4119
-9189283624875180872,-1521781524640025379,1020,1020
-9189283624875180872,3039183585666478258,856,856
-9189283624875180872,5558406874053753951,1130,1130
-9189283624875180872,6774940305471585130,850,850
-9096232754884560930,-8638814388602130013,1005,1005
-9096232754884560930,-7784712059813151204,11346,11346
-9096232754884560930,-7675450448203336984,1649,1649
-9096232754884560930,-7426124097735608676,1097,1097
-9096232754884560930,-6806691435797463535,6584,6584
-9096232754884560930,-5904698658142210447,1400,1400
-9096232754884560930,-5846950087260686514,915,915
-9096232754884560930,-4999257352771650151,1948,1948
-9096232754884560930,-4666453782075787270,3416,3416
-9096232754884560930,-4129215337742647371,1675,1675
-9096232754884560930,-3358320156885107738,922,922
-9096232754884560930,-3268067683072787167,1754,1754
-9096232754884560930,-2158435871750802565,2247,2247
-9096232754884560930,-1423000256242238038,1057,1057
-9096232754884560930,603774118492778883,2540,2540
-9096232754884560930,1960646417337105237,3388,3388
-9096232754884560930,2128594542511665643,732,732
-9096232754884560930,2421156375800528076,801,801
-9096232754884560930,2589265509983531627,5052,5052
-9096232754884560930,2754757901767751842,546,546
-9096232754884560930,4628177386949784567,676,676
-9096232754884560930,5647053732965528546,1560,1560
-9096232754884560930,7341486337184709423,1343,1343
-9096232754884560930,7519427517373691798,4249,4249
-9096232754884560930,7847537258258185880,1294,1294
-9054730520840161619,-8445470335412454848,505,505
-9054730520840161619,-6806691435797463535,1915,1915
-9054730520840161619,-3810326145888079572,1374,1374
-9054730520840161619,-1423000256242238038,748,748
-9054730520840161619,-1092374183810287215,1603,1603
-9054730520840161619,1108832248229541119,557,557
-9045514412949687915,-5590869721623546934,516,516
-9045514412949687915,-4050477985649184306,1017,1017
-8984704452568796311,2695305337569098618,612,612
-8891087951811101969,-7784712059813151204,821,821
-8881380130726595018,-7784712059813151204,544,544
-8745505558082406655,-6835537133953598467,766,766
-8745505558082406655,-4999257352771650151,1467,1467
-8745505558082406655,-4674365320703232734,516,516
-8745505558082406655,-4129215337742647371,1855,1855
-8745505558082406655,-3810326145888079572,1070,1070
-8745505558082406655,-3304550021239131016,1793,1793
-8745505558082406655,-2337037304635902232,558,558
-8745505558082406655,-2158435871750802565,1443,1443
-8745505558082406655,-273033171021384035,1851,1851
-8745505558082406655,160009025870183982,1047,1047
-8745505558082406655,603774118492778883,1672,1672
-8745505558082406655,1033778921950427255,943,943
-8745505558082406655,1960646417337105237,1931,1931
-8745505558082406655,2128594542511665643,806,806
-8745505558082406655,2421156375800528076,852,852
-8745505558082406655,2695305337569098618,3560,3560
-8745505558082406655,3645692567939266464,1387,1387
-8745505558082406655,7341486337184709423,514,514
-8745505558082406655,7519427517373691798,4275,4275
-8641629872156953748,-1788134360438261396,538,538
-8641629872156953748,7269339539335429768,705,705
-8638814388602130013,-7784712059813151204,1406,1406
-8638814388602130013,-6835537133953598467,671,671
-8638814388602130013,-2159857214311285554,516,516
-8638814388602130013,-1092374183810287215,870,870
-8491974549885993122,-4050477985649184306,568,568
-8491974549885993122,3193173518988490583,549,549
-8481753544240448093,160009025870183982,1045,1045
-8481753544240448093,1033778921950427255,738,738
-8481753544240448093,2589265509983531627,689,689
-8476437303145384835,-7784712059813151204,1379,1379
-8476437303145384835,-4060513158963513109,812,812
-8476437303145384835,-3304550021239131016,675,675
-8476437303145384835,-2159857214311285554,1056,1056
-8476437303145384835,-2158435871750802565,526,526
-8476437303145384835,2589265509983531627,655,655
-8476437303145384835,2695305337569098618,1284,1284
-8476437303145384835,7341486337184709423,505,505
-8445470335412454848,-6806691435797463535,698,698
-8445470335412454848,-3810326145888079572,618,618
-8445470335412454848,2695305337569098618,532,532
-8102260625013720780,810443090478841200,514,514
-7860083176248557588,5371115335115552567,523,523
-7784712059813151204,-7702246673281502833,1330,1330
-7784712059813151204,-7426124097735608676,2233,2233
-7784712059813151204,-6835537133953598467,1154,1154
-7784712059813151204,-6806691435797463535,5934,5934
-7784712059813151204,-6174967750217613587,1910,1910
-7784712059813151204,-6148556074643278874,523,523
-7784712059813151204,-5835361465413913482,1284,1284
-7784712059813151204,-4999257352771650151,1910,1910
-7784712059813151204,-4666453782075787270,2943,2943
-7784712059813151204,-4060513158963513109,3904,3904
-7784712059813151204,-2179786877876424548,2702,2702
-7784712059813151204,-2159857214311285554,7939,7939
-7784712059813151204,-2158435871750802565,2367,2367
-7784712059813151204,-1521781524640025379,1375,1375
-7784712059813151204,-560123512857411715,524,524
-7784712059813151204,-464204487869910793,1477,1477
-7784712059813151204,-273033171021384035,3757,3757
-7784712059813151204,622694523106574329,521,521
-7784712059813151204,865030606091400331,940,940
-7784712059813151204,2087922859966410869,601,601
-7784712059813151204,2128594542511665643,783,783
-7784712059813151204,2421156375800528076,884,884
-7784712059813151204,2707166451744194534,2811,2811
-7784712059813151204,2768059539183056150,1241,1241
-7784712059813151204,3645692567939266464,3112,3112
-7784712059813151204,4775248038139805003,529,529
-7784712059813151204,7057794358978688335,1558,1558
-7784712059813151204,7484248958687458596,1214,1214
-7784712059813151204,7744895437826374207,1372,1372
-7784712059813151204,7847537258258185880,1891,1891
-7784712059813151204,8584721346566371541,721,721
-7759278799329347035,-6026813875032476846,841,841
-7759278799329347035,-4060513158963513109,639,639
-7759278799329347035,-2406154927270380003,742,742
-7702246673281502833,-4876003296321717233,1246,1246
-7702246673281502833,-4666453782075787270,709,709
-7702246673281502833,-4060513158963513109,3879,3879
-7702246673281502833,-3869629224220610070,1556,1556
-7702246673281502833,-3268067683072787167,913,913
-7702246673281502833,-2479076574622892161,588,588
-7702246673281502833,-2406154927270380003,5123,5123
-7702246673281502833,-2179786877876424548,1032,1032
-7702246673281502833,871557107850427658,1435,1435
-7702246673281502833,2087922859966410869,1153,1153
-7702246673281502833,2273687203114921985,537,537
-7702246673281502833,2589265509983531627,597,597
-7702246673281502833,3645692567939266464,4182,4182
-7702246673281502833,4462447588911890185,1440,1440
-7702246673281502833,4775248038139805003,2227,2227
-7702246673281502833,7341486337184709423,3797,3797
-7675450448203336984,-2159857214311285554,1953,1953
-7577602245261838933,-4050477985649184306,797,797
-7537657905707207481,1960646417337105237,886,886
-7537657905707207481,3039183585666478258,731,731
-7426124097735608676,-4995287720068695020,758,758
-7426124097735608676,-2159857214311285554,1293,1293
-7426124097735608676,160009025870183982,2966,2966
-7426124097735608676,1033778921950427255,1638,1638
-7426124097735608676,2589265509983531627,1997,1997
-7426124097735608676,6059137422770648348,767,767
-6944071657116387530,3039183585666478258,533,533
-6871805885232958587,-273033171021384035,503,503
-6861850936062169047,-6806691435797463535,705,705
-6861850936062169047,-1423000256242238038,931,931
-6806691435797463535,-4060513158963513109,1753,1753
-6806691435797463535,-3810326145888079572,1898,1898
-6806691435797463535,-3304550021239131016,2180,2180
-6806691435797463535,-1543142750889493407,587,587
-6806691435797463535,-1092374183810287215,2454,2454
-6806691435797463535,603774118492778883,1418,1418
-6806691435797463535,865030606091400331,1093,1093
-6806691435797463535,3039183585666478258,3898,3898
-6806691435797463535,5074974895441262076,524,524
-6806691435797463535,7341486337184709423,542,542
-6659696680396705782,-5279551511944939224,501,501
-6659696680396705782,-273033171021384035,517,517
-6657017815155132421,3039183585666478258,678,678
-6174967750217613587,-6026813875032476846,655,655
-6174967750217613587,-2159857214311285554,746,746
-6174967750217613587,3039183585666478258,1726,1726
-6082952131478998945,-273033171021384035,584,584
-6082952131478998945,2695305337569098618,773,773
-6082952131478998945,2768059539183056150,603,603
-6082952131478998945,4462447588911890185,957,957
-6082952131478998945,4775248038139805003,856,856
-6082952131478998945,7341486337184709423,592,592
-6026813875032476846,-5835361465413913482,715,715
-6026813875032476846,-5264754114606649098,668,668
-6026813875032476846,-3869629224220610070,669,669
-6026813875032476846,-3810326145888079572,1546,1546
-6026813875032476846,-3700314938593300040,541,541
-6026813875032476846,-2159857214311285554,4200,4200
-6026813875032476846,-273033171021384035,2645,2645
-6026813875032476846,1108832248229541119,1037,1037
-6026813875032476846,2589265509983531627,3109,3109
-6026813875032476846,2695305337569098618,3509,3509
-6026813875032476846,2707166451744194534,1558,1558
-6026813875032476846,3039183585666478258,3858,3858
-6026813875032476846,7519427517373691798,1361,1361
-6026813875032476846,7744895437826374207,667,667
-5904698658142210447,-3304550021239131016,545,545
-5904698658142210447,2695305337569098618,1363,1363
-5835361465413913482,-1092374183810287215,585,585
-5835361465413913482,-273033171021384035,602,602
-5835361465413913482,2695305337569098618,883,883
-5414993972319602247,-2406154927270380003,2193,2193
-5414993972319602247,-273033171021384035,1558,1558
-5414993972319602247,2768059539183056150,815,815
-5414993972319602247,3645692567939266464,1485,1485
-5414993972319602247,7484248958687458596,1415,1415
-5279551511944939224,5924061942921902842,520,520
-5279551511944939224,7269339539335429768,905,905
-5264754114606649098,-4060513158963513109,609,609
-5264754114606649098,2589265509983531627,527,527
-5264754114606649098,2707166451744194534,608,608
-5264754114606649098,3039183585666478258,643,643
-4999257352771650151,-4666453782075787270,732,732
-4999257352771650151,-4060513158963513109,1393,1393
-4999257352771650151,-2159857214311285554,1641,1641
-4999257352771650151,2707166451744194534,566,566
-4999257352771650151,3039183585666478258,978,978
-4999257352771650151,4775248038139805003,764,764
-4876003296321717233,-3304550021239131016,1212,1212
-4876003296321717233,-3268067683072787167,1549,1549
-4876003296321717233,2811838510934669772,571,571
-4876003296321717233,3645692567939266464,1313,1313
-4876003296321717233,4775248038139805003,791,791
-4784466475620485975,2354168319435882442,509,509
-4674365320703232734,-3268067683072787167,538,538
-4674365320703232734,-2159857214311285554,606,606
-4674365320703232734,-273033171021384035,582,582
-4666453782075787270,-4060513158963513109,2393,2393
-4666453782075787270,-3869629224220610070,717,717
-4666453782075787270,-3268067683072787167,635,635
-4666453782075787270,2768059539183056150,608,608
-4666453782075787270,2811838510934669772,1509,1509
-4666453782075787270,3039183585666478258,2513,2513
-4666453782075787270,7484248958687458596,735,735
-4659302083593487529,-2406154927270380003,519,519
-4659034257681990730,-1788134360438261396,1530,1530
-4387858203142964056,-3268067683072787167,1580,1580
-4387858203142964056,2695305337569098618,609,609
-4288244399130394731,-2952728705836369114,851,851
-4060513158963513109,-3268067683072787167,1974,1974
-4060513158963513109,-2406154927270380003,11909,11909
-4060513158963513109,-2179786877876424548,3870,3870
-4060513158963513109,-2159857214311285554,2648,2648
-4060513158963513109,-1092374183810287215,1301,1301
-4060513158963513109,2695305337569098618,8959,8959
-4060513158963513109,2811838510934669772,5098,5098
-4060513158963513109,3039183585666478258,1922,1922
-4060513158963513109,3946370886449903125,755,755
-4060513158963513109,5647053732965528546,926,926
-4050477985649184306,-1036264720951525578,684,684
-4025442128542614233,2795300993606236170,503,503
-3869629224220610070,-2179786877876424548,630,630
-3869629224220610070,1108832248229541119,520,520
-3869629224220610070,2087922859966410869,922,922
-3869629224220610070,2768059539183056150,1091,1091
-3869629224220610070,3039183585666478258,674,674
-3869629224220610070,3645692567939266464,2064,2064
-3869629224220610070,7484248958687458596,1823,1823
-3869629224220610070,8584721346566371541,525,525
-3810326145888079572,-2406154927270380003,1423,1423
-3700314938593300040,3039183585666478258,506,506
-3522223837183396362,-3304550021239131016,941,941
-3522223837183396362,-2159857214311285554,726,726
-3522223837183396362,2811838510934669772,620,620
-3522223837183396362,3039183585666478258,672,672
-3473508732087881092,2589265509983531627,623,623
-3365402510077576223,-2406154927270380003,632,632
-3358320156885107738,603774118492778883,703,703
-3304550021239131016,-2479076574622892161,1043,1043
-3304550021239131016,-2406154927270380003,9164,9164
-3304550021239131016,-273033171021384035,6497,6497
-3304550021239131016,2589265509983531627,698,698
-3304550021239131016,2695305337569098618,7253,7253
-3304550021239131016,2768059539183056150,2169,2169
-3304550021239131016,3039183585666478258,2610,2610
-3304550021239131016,3645692567939266464,4966,4966
-3304550021239131016,4064891571011074380,1577,1577
-3304550021239131016,4462447588911890185,999,999
-3304550021239131016,8584721346566371541,1310,1310
-3268067683072787167,-2406154927270380003,2141,2141
-3268067683072787167,3193173518988490583,861,861
-3268067683072787167,5558406874053753951,511,511
-3268067683072787167,7341486337184709423,1740,1740
-3268067683072787167,7484248958687458596,1126,1126
-2963289861426299037,7487564815517957247,561,561
-2479076574622892161,-273033171021384035,956,956
-2479076574622892161,3645692567939266464,907,907
-2479076574622892161,5074974895441262076,725,725
-2406154927270380003,-273033171021384035,11040,11040
-2406154927270380003,865030606091400331,577,577
-2406154927270380003,1960646417337105237,1383,1383
-2406154927270380003,2087922859966410869,1943,1943
-2406154927270380003,2589265509983531627,1901,1901
-2406154927270380003,2811838510934669772,6278,6278
-2406154927270380003,3645692567939266464,6229,6229
-2406154927270380003,3946370886449903125,1123,1123
-2406154927270380003,4357639940090376395,702,702
-2406154927270380003,4628177386949784567,590,590
-2406154927270380003,7429265519267953816,672,672
-2406154927270380003,7484248958687458596,5811,5811
-2406154927270380003,7519427517373691798,1136,1136
-2406154927270380003,7744895437826374207,634,634
-2179786877876424548,-2159857214311285554,4111,4111
-2179786877876424548,-2158435871750802565,638,638
-2179786877876424548,-273033171021384035,3576,3576
-2179786877876424548,1108832248229541119,884,884
-2179786877876424548,4064891571011074380,735,735
-2179786877876424548,4628177386949784567,551,551
-2179786877876424548,7341486337184709423,1533,1533
-2159857214311285554,-273033171021384035,2621,2621
-2159857214311285554,160009025870183982,1641,1641
-2159857214311285554,411522172308304650,1237,1237
-2159857214311285554,1108832248229541119,773,773
-2159857214311285554,2707166451744194534,4862,4862
-2159857214311285554,3142100258669736279,520,520
-2159857214311285554,3645692567939266464,1658,1658
-2159857214311285554,5647053732965528546,847,847
-2159857214311285554,6059137422770648348,834,834
-2159857214311285554,7341486337184709423,747,747
-2159223491519827085,3039183585666478258,679,679
-2158435871750802565,-1521781524640025379,733,733
-2158435871750802565,5074974895441262076,687,687
-1788134360438261396,3193173518988490583,667,667
-1423000256242238038,-1092374183810287215,679,679
-1423000256242238038,2695305337569098618,918,918
-1423000256242238038,2811838510934669772,682,682
-1092374183810287215,603774118492778883,2594,2594
-1092374183810287215,1960646417337105237,1881,1881
-1092374183810287215,2695305337569098618,2132,2132
-1092374183810287215,2811838510934669772,923,923
-1043076841826534975,3645692567939266464,578,578
-560123512857411715,2589265509983531627,1245,1245
-560123512857411715,2707166451744194534,1185,1185
-273033171021384035,457644081920749895,510,510
-273033171021384035,603774118492778883,822,822
-273033171021384035,871557107850427658,1179,1179
-273033171021384035,2589265509983531627,1328,1328
-273033171021384035,3645692567939266464,5600,5600
-273033171021384035,5074974895441262076,1747,1747
-273033171021384035,5647053732965528546,807,807
-273033171021384035,7484248958687458596,2885,2885
-273033171021384035,7519427517373691798,839,839
160009025870183982,1033778921950427255,1797,1797
160009025870183982,3039183585666478258,573,573
411522172308304650,7519427517373691798,603,603
603774118492778883,3039183585666478258,2569,2569
865030606091400331,3039183585666478258,703,703
871557107850427658,2695305337569098618,1593,1593
871557107850427658,4462447588911890185,823,823
871557107850427658,7484248958687458596,1313,1313
1033778921950427255,2589265509983531627,1139,1139
1108832248229541119,3645692567939266464,1082,1082
1108832248229541119,5074974895441262076,2844,2844
1960646417337105237,2707166451744194534,902,902
1960646417337105237,2811838510934669772,785,785
1960646417337105237,3039183585666478258,2876,2876
1960646417337105237,7519427517373691798,813,813
2087922859966410869,2768059539183056150,882,882
2087922859966410869,4775248038139805003,565,565
2087922859966410869,7341486337184709423,1520,1520
2087922859966410869,7484248958687458596,1190,1190
2273687203114921985,2695305337569098618,663,663
2273687203114921985,4775248038139805003,576,576
2435365756379674207,2589265509983531627,736,736
2589265509983531627,3039183585666478258,559,559
2589265509983531627,3645692567939266464,1347,1347
2589265509983531627,6059137422770648348,680,680
2589265509983531627,6405593197437662758,1007,1007
2589265509983531627,6903485232791761071,549,549
2695305337569098618,2707166451744194534,1426,1426
2695305337569098618,4462447588911890185,1622,1622
2695305337569098618,4775248038139805003,2394,2394
2695305337569098618,5074974895441262076,2361,2361
2695305337569098618,7057794358978688335,527,527
2695305337569098618,7341486337184709423,6550,6550
2695305337569098618,7484248958687458596,5019,5019
2695305337569098618,8245816881551523383,705,705
2707166451744194534,3039183585666478258,697,697
2707166451744194534,6903485232791761071,615,615
2707166451744194534,7519427517373691798,992,992
2768059539183056150,2811838510934669772,625,625
2768059539183056150,4775248038139805003,2050,2050
2811838510934669772,3645692567939266464,2522,2522
2811838510934669772,5647053732965528546,591,591
2811838510934669772,7484248958687458596,1995,1995
3039183585666478258,3645692567939266464,1035,1035
3039183585666478258,5074974895441262076,621,621
3039183585666478258,7744895437826374207,953,953
3142100258669736279,3574787208394128407,542,542
3193173518988490583,6328904159831800563,581,581
3645692567939266464,4462447588911890185,1406,1406
3645692567939266464,4775248038139805003,1988,1988
3645692567939266464,7519427517373691798,768,768
3645692567939266464,8584721346566371541,1804,1804
3946370886449903125,7484248958687458596,592,592
4462447588911890185,7341486337184709423,1371,1371
4775248038139805003,8584721346566371541,666,666
5074974895441262076,7057794358978688335,515,515
7341486337184709423,7484248958687458596,6878,6878
7341486337184709423,8584721346566371541,1663,1663
8245816881551523383,8584721346566371541,609,609
